tree
version=v4
num_class=1
num_tree_per_iteration=1
label_index=0
max_feature_idx=15
objective=regression
feature_names=fue_activo lag_1 activo_lag_1 lag_2 activo_lag_2 lag_3 activo_lag_3 rolling_mean_3 rolling_std_3 rolling_mean_6 rolling_std_6 mes_num trimestre Nomenclador Tipo_Clase_CM Gama
feature_infos=[0:1] [0:14035] [0:1] [0:14035] [0:1] [0:14035] [0:1] [0:13002] [0:2771.6083778196371] [0:12990.75] [0:2771.6083778196371] [4:10] [2:4] -1:13:10:12:11:19:18:5:6:28:22:2:25:21:14:26:16:15:27:20:7:0:4:1:8:9:23:3:24 -1:0:1:2 -1:0:3:2:1
tree_sizes=2673 2684 2688 2684 2698 2682 2685 2699 2710 2694 2689 2706 2693 2691 2704 2705 2671 2709 2717 2710 2707 2684 2693 2722 2722 2683 2677 2713 2677 2704 2717 2700 2684 2704 2679 2678 2700 2727 2731 2704 2657 2728 2694 2660 2687 2697 2681 2695 2724 2711 2705 2678 2696 2708 2724 2735 2723 2702 2738 2687 2727 2757 2731 2693 2743 2724 2711 2722 2741 2724 2718 2728 2735 2718 2729 2736 2718 2736 2759 2727 2744 2705 2713 2742 2752 2719 2715 2719 2737 2712 2748 2760 2716 2755 2748 2782 2742 2765 2749 2763 2773 2760 2786 2770 2768 2775 2792 2833 2756 2745 2797 2715 2742 2727 2732 2780 2800 2815 2794 2828 2809 2810 2798 2785 2806 2765 2807 2762 2730 2769 2788 2765 2776 2781 2779 2754 2763 2775 2781 2797 2816 2814 2827 2764 2838 2793 2775 2785 2815 2815 2772 2804 2805 2802 2768 2777 2791 2820 2776 2823 2729 2745 2787 2784 2785 2764 2770 2775 2756 2772 2831 2807 2773 2766 2735 2765 2815 2751 2770 2772 2736 2806 2742 2767 2765 2798 2829 2823 2840 2786 2801 2805 2803 2780 2810 2820 2762 2811 2820 2819 2791 2750 2805 2793 2794 2820 2815 2793 2798 2774 2780 2771 2779 2808 2777 2824 2805 2783

Tree=0
num_leaves=31
num_cat=0
split_feature=9 9 7 9 7 9 1 1 9 9 9 9 7 3 1 3 9 9 7 7 3 9 9 9 9 7 9 9 3 9
split_gain=2.34574e+09 2.56791e+08 7.25391e+07 4.07632e+07 1.78086e+07 6.10219e+06 5.1665e+06 2.80187e+06 1.17695e+06 1.02723e+06 732491 647802 578114 352727 278812 252637 188491 131702 128195 93428.3 86804.7 85197.4 75853.3 72164.2 71997.2 66725.9 60563.9 58005.7 44892.2 27713.6
threshold=3489.7500000000005 397.37500000000006 1513.0000000000002 91.183333333333351 782.00000000000011 223.75000000000003 26.500000000000004 1016.5000000000001 515.33333333333337 139.3666666666667 54.416666666666679 7.916666666666667 323.83333333333343 653.50000000000011 880.50000000000011 1202.0000000000002 180.51666666666668 35.45000000000001 114.50000000000001 439.16666666666669 128.50000000000003 16.083333333333339 269.41666666666669 2.5500000000000003 366.45000000000005 905.00000000000011 69.083333333333357 160.58333333333334 552.50000000000011 120.91666666666667
decision_type=2 2 2 2 2 2 2 2 2 2 2 2 2 2 2 2 2 2 2 2 2 2 2 2 2 2 2 2 2 2
left_child=1 3 4 6 8 9 11 14 19 18 17 23 22 28 -6 -9 20 -8 -5 -3 -11 -13 -7 -1 -14 -16 -12 -22 -10 -20
right_child=-2 2 -4 5 7 12 10 15 13 16 26 21 24 -15 25 -17 -18 -19 29 -21 27 -23 -24 -25 -26 -27 -28 -29 -30 -31
leaf_value=30.596516210229989 466.86537948560289 52.472086259655491 140.87464570239075 35.785748603989376 71.347638042338005 43.803159134149418 32.083650788501913 86.948060789978086 57.982841549374854 42.026319984393638 33.893504396737136 31.150968143047091 48.419273192504853 66.503755951125541 75.761011698251991 94.358931018621092 41.172086277223173 32.956880370318643 36.654981321081486 55.34451395222257 38.254508707248313 31.642649491501043 45.83001270226805 30.818967341935551 51.265872809363088 79.671428822682316 34.768109734815212 39.607155378851544 60.918928364918649 37.627465256390693
leaf_weight=21676 31 38 35 261 31 104 900 23 23 23 389 2324 58 29 24 23 152 830 114 111 181 1419 83 4383 36 20 403 141 30 205
leaf_count=21676 31 38 35 261 31 104 900 23 23 23 389 2324 58 29 24 23 152 830 114 111 181 1419 83 4383 36 20 403 141 30 205
internal_value=32.1236 31.728 72.2251 31.2627 65.3991 39.749 30.9062 80.9383 57.2596 38.037 33.0792 30.7223 46.3107 62.0705 74.9796 90.6535 39.7051 32.5026 36.6075 54.6119 39.0588 31.3374 44.7028 30.6339 49.5095 77.5385 34.3385 38.8468 59.6448 37.2799
internal_weight=34100 34069 387 33682 352 1358 32324 121 231 1077 2522 29802 281 82 75 46 497 1730 580 149 345 3743 187 26059 94 44 792 322 53 319
internal_count=34100 34069 387 33682 352 1358 32324 121 231 1077 2522 29802 281 82 75 46 497 1730 580 149 345 3743 187 26059 94 44 792 322 53 319
is_linear=0
shrinkage=1


Tree=1
num_leaves=31
num_cat=0
split_feature=9 7 7 9 5 9 1 1 9 5 9 9 1 7 5 5 9 5 9 7 7 9 7 9 9 9 9 3 1 1
split_gain=2.11703e+09 2.31757e+08 6.71754e+07 3.47484e+07 1.74115e+07 4.66689e+06 4.66277e+06 3.19644e+06 927074 706047 661073 584824 450001 340902 265119 248902 186453 154850 123249 120788 115696 78541 77239.8 68457.6 63538.8 54658.9 53350.4 48622.6 46164.4 38790.5
threshold=3489.7500000000005 386.50000000000006 1513.0000000000002 91.183333333333351 697.00000000000011 223.75000000000003 26.500000000000004 1016.5000000000001 139.3666666666667 537.00000000000011 54.416666666666679 8.7083333333333339 857.50000000000011 323.83333333333343 1162.5000000000002 229.50000000000003 175.08333333333334 446.50000000000006 602.76666666666677 38.500000000000007 114.50000000000001 2.8166666666666669 905.00000000000011 269.41666666666669 16.083333333333339 69.083333333333357 488.75000000000006 436.50000000000006 133.50000000000003 780.50000000000011
decision_type=2 2 2 2 2 2 2 2 2 2 2 2 2 2 2 2 2 2 2 2 2 2 2 2 2 2 2 2 2 2
left_child=1 3 4 6 9 8 11 12 20 17 19 21 29 23 -9 16 28 27 -11 -8 -5 -1 -14 -7 -13 -12 -19 -3 -10 -6
right_child=-2 2 -4 5 7 13 10 14 15 18 25 24 22 -15 -16 -17 -18 26 -20 -21 -22 -23 -24 -25 -26 -27 -28 -29 -30 -31
leaf_value=-1.4904764670189206 412.96318910660284 18.117108308701287 103.27197893415178 3.4375324227344031 34.304345841841261 11.054072688176083 -0.034206867736423077 51.233933258056645 4.2110798023365161 24.992979770236545 1.6399005894757483 -0.93780889649351296 41.117490437825523 15.937635468783444 58.891088162935695 12.488129452296667 8.2475073569002202 21.222759121981536 29.727559389386858 0.81336683454380054 4.8570065142592673 -1.2591091746445326 45.12892776489258 12.979583482857212 -0.4984115387055133 2.4707756759954744 23.573669717478197 20.58552145456013 6.3766347322532599 37.273526313088155
leaf_weight=22024 31 42 35 261 22 104 1010 20 27 27 389 1958 30 73 26 21 171 55 28 720 319 4401 20 83 1419 403 43 38 278 22
leaf_count=22024 31 42 35 261 22 104 1010 20 27 27 389 1958 30 73 26 21 171 55 28 720 319 4401 20 83 1419 403 43 38 278 22
internal_value=-0.0415279 -0.417328 37.0403 -0.871347 30.8256 7.02763 -1.19807 44.7619 5.57619 22.4518 0.866265 -1.37276 39.4768 13.0399 55.5619 7.16092 6.9259 20.9218 27.4033 0.318541 4.21824 -1.45194 42.7221 11.9087 -0.753176 2.06268 22.2543 19.2896 6.18493 35.7889
internal_weight=34100 34069 408 33661 373 1337 32324 140 1077 233 2522 29802 94 260 46 497 476 178 55 1730 580 26425 50 187 3377 792 98 80 305 44
internal_count=34100 34069 408 33661 373 1337 32324 140 1077 233 2522 29802 94 260 46 497 476 178 55 1730 580 26425 50 187 3377 792 98 80 305 44
is_linear=0
shrinkage=0.05


Tree=2
num_leaves=31
num_cat=0
split_feature=9 9 7 7 5 7 9 7 5 7 9 9 9 9 5 5 5 9 7 9 9 3 7 0 9 9 9 9 8 3
split_gain=1.91062e+09 2.09197e+08 6.16631e+07 3.01028e+07 1.64694e+07 4.13444e+06 3.8241e+06 2.8619e+06 695407 539285 526627 525140 520471 419753 197226 163401 126269 111232 99602.7 99067.3 92201.1 77578.7 72469.3 72131.2 61007.2 58005.3 48996.5 42670.5 40186 33879.8
threshold=3489.7500000000005 366.45000000000005 1513.0000000000002 91.833333333333357 697.00000000000011 26.166666666666668 187.70833333333334 985.83333333333348 537.00000000000011 8.5000000000000018 54.416666666666679 269.41666666666669 125.12500000000001 1119.0000000000002 431.00000000000006 866.50000000000011 202.50000000000003 602.76666666666677 160.50000000000003 223.75000000000003 35.45000000000001 824.50000000000011 323.83333333333343 1.0000000180025095e-35 15.366666666666669 488.75000000000006 69.083333333333357 114.63333333333334 37.744713160140449 386.00000000000006
decision_type=2 2 2 2 2 2 2 2 2 2 2 2 2 2 2 2 2 2 2 2 2 2 2 2 2 2 2 2 2 2
left_child=1 3 4 5 8 9 12 15 14 23 20 19 27 -9 29 21 18 -10 -14 -8 -7 -6 -13 -1 -11 -16 -12 28 -5 -3
right_child=-2 2 -4 6 7 10 11 13 17 24 26 22 16 -15 25 -17 -18 -19 -20 -21 -22 -23 -24 -25 -26 -27 -28 -29 -30 -31
leaf_value=-1.4560877038102853 392.31502882434478 15.99462736129761 98.108380998883945 3.4280540293576767 33.453580229622979 -0.051983350211412697 8.3846946102077684 46.759519542347306 23.743330835413051 -0.89658645596407871 1.4933241697578934 12.330604295845491 5.1902482017967273 55.918388735014823 20.1039447111242 39.483435268402104 9.3040491911081169 28.241182054792134 6.6131335632285886 10.501368834422186 0.68877811545336787 37.47380748930432 14.634185817323882 -1.2895294467044069 -0.4752830512512094 22.43381611217152 2.2819198046113018 4.4060179183357642 1.1640392172904244 18.366017866330068
leaf_weight=14470 31 20 35 294 28 823 118 22 27 2122 389 83 322 29 68 40 26 28 199 104 858 21 58 11802 1444 44 399 114 21 61
leaf_count=14470 31 20 35 294 28 823 118 22 27 2122 389 83 322 29 68 40 26 28 199 104 858 21 58 11802 1444 44 399 114 21 61
internal_value=-0.0394515 -0.396462 34.5469 -0.835772 28.8132 -1.14025 6.51047 42.5238 21.0734 -1.30295 0.826075 10.8919 4.8809 51.9675 19.66 37.1122 5.90343 26.0331 5.73373 9.37629 0.326109 35.1765 13.2782 -1.38127 -0.725986 21.0193 1.89263 3.57711 3.27712 17.7805
internal_weight=34100 34069 423 33646 388 32307 1339 140 248 29838 2469 363 976 51 193 89 547 55 521 222 1681 49 141 26272 3566 112 788 429 315 81
internal_count=34100 34069 423 33646 388 32307 1339 140 248 29838 2469 363 976 51 193 89 547 55 521 222 1681 49 141 26272 3566 112 788 429 315 81
is_linear=0
shrinkage=0.05


Tree=3
num_leaves=31
num_cat=0
split_feature=5 5 1 7 5 1 7 1 3 7 7 7 1 1 3 11 1 3 1 7 1 7 1 7 1 3 7 7 7 7
split_gain=1.71867e+09 2.22623e+08 6.37071e+07 5.44342e+07 1.11475e+07 7.08579e+06 6.26247e+06 1.42189e+06 1.34404e+06 904723 888343 860720 840650 212835 196967 189548 325016 184867 182874 150801 129355 123994 112130 83550.7 65042.8 49024.3 34069.7 31206.4 30665.8 30084.1
threshold=5400.5000000000009 669.50000000000011 2129.0000000000005 134.16666666666671 327.00000000000006 39.500000000000007 1133.1666666666667 223.50000000000003 1296.0000000000002 10.16666666666667 77.833333333333357 455.16666666666674 880.50000000000011 551.50000000000011 264.50000000000006 4.5000000000000009 348.50000000000006 924.50000000000011 174.50000000000003 111.16666666666667 22.500000000000004 59.833333333333336 756.50000000000011 3.8333333333333335 341.50000000000006 194.50000000000003 386.50000000000006 153.50000000000003 582.50000000000011 41.166666666666679
decision_type=2 2 2 2 2 2 2 2 2 2 2 2 2 2 2 2 2 2 2 2 2 2 2 2 2 2 2 2 2 2
left_child=1 3 6 5 7 9 12 18 -8 23 21 15 22 -13 25 -6 -17 -14 27 -12 -11 29 -3 -1 -16 -9 -18 -5 -15 -7
right_child=-2 2 -4 4 11 10 8 14 -10 20 19 13 17 28 24 16 26 -19 -20 -21 -22 -23 -24 -25 -26 -27 -28 -29 -30 -31
leaf_value=-1.3385038030846375 406.32551457331732 29.737482904504844 128.23236059570314 4.8084125958956214 20.578290023803714 0.25475195142041362 49.59643448539402 7.2120828921978291 66.68978430706521 -0.70055901161069878 2.6889209638616092 20.289815078735355 37.723278808593754 23.050932277332652 11.444137087735264 10.378173798781177 15.216414868390117 43.321704305013021 7.081252680176414 4.1798120204875531 -0.095399490207184856 1.7682766170728776 34.144885475404799 -1.0810940915642044 14.50774412609282 9.6517257806026588 17.329462233323319 5.7930650244664106 25.635329437255862 0.90489698595152446
leaf_weight=23285 26 27 25 195 20 245 23 26 23 2449 465 100 29 22 99 26 27 30 217 267 1381 420 31 3646 21 99 65 137 24 650
leaf_count=23285 26 27 25 195 20 245 23 26 23 2449 465 100 29 22 99 26 27 30 217 267 1381 420 31 3646 21 99 65 137 24 650
internal_value=-0.037479 -0.347552 53.9118 -0.648584 10.4069 -1.01184 42.513 7.36598 58.1431 -1.2014 1.83665 18.9085 36.3678 21.5846 10.5333 16.0772 15.3143 40.5699 5.9525 3.23273 -0.482354 1.05952 32.0932 -1.30365 11.9803 9.14428 16.7093 5.21473 24.3993 0.726924
internal_weight=34100 34074 188 33886 1078 32808 163 794 46 30761 2047 284 117 146 245 138 118 59 549 732 3830 1315 58 26931 120 125 92 332 46 895
internal_count=34100 34074 188 33886 1078 32808 163 794 46 30761 2047 284 117 146 245 138 118 59 549 732 3830 1315 58 26931 120 125 92 332 46 895
is_linear=0
shrinkage=0.05


Tree=4
num_leaves=31
num_cat=0
split_feature=9 9 7 9 5 1 9 1 5 9 9 9 9 1 5 5 5 9 1 9 9 9 0 7 7 1 9 0 9 9
split_gain=1.56115e+09 1.69921e+08 4.95468e+07 2.45501e+07 1.34065e+07 3.4395e+06 3.07335e+06 2.36403e+06 571734 518389 426666 403244 396602 345847 194342 163102 144611 91133.7 89476.3 88709.1 80089.1 64644.2 63818.4 59095 54137.6 49424.4 49240.9 47585.7 46584.5 35170.2
threshold=3489.7500000000005 366.45000000000005 1513.0000000000002 91.183333333333351 697.00000000000011 29.500000000000004 187.70833333333334 1016.5000000000001 537.00000000000011 8.7083333333333339 269.41666666666669 58.708333333333336 139.3666666666667 857.50000000000011 1162.5000000000002 431.00000000000006 202.50000000000003 602.76666666666677 105.50000000000001 39.550000000000004 223.75000000000003 19.083333333333339 1.0000000180025095e-35 323.83333333333343 905.00000000000011 401.50000000000006 488.75000000000006 1.0000000180025095e-35 160.58333333333334 114.63333333333334
decision_type=2 2 2 2 2 2 2 2 2 2 2 2 2 2 2 2 2 2 2 2 2 2 2 2 2 2 2 2 2 2
left_child=1 3 4 5 8 9 12 13 15 22 20 19 18 -6 -9 25 28 -10 -5 -7 -8 -11 -1 -12 -15 -3 -17 -23 -14 -20
right_child=-2 2 -4 6 7 11 10 14 17 21 23 -13 16 24 -16 26 -18 -19 29 -21 -22 27 -24 -25 -26 -27 -28 -29 -30 -31
leaf_value=-1.3161292994468785 354.62568556262602 13.933315912882486 88.110115007673002 2.6704291241607447 30.58681718652899 0.0872398687267395 7.5849865800243315 43.947375793457034 21.436260308159724 -0.75917801110037952 11.137951136209878 1.9187957684077728 4.9261012755601836 35.321525573730469 50.503241553673377 18.122947659211999 9.455158615112305 25.507529885428294 3.3876382366139839 0.8353079844887058 9.4881480987255387 -1.4848020624231411 -1.1600888270736485 13.218136136285191 38.679898223876961 16.751684195200603 20.269596654718573 -0.23069834656338553 6.0772398459911345 4.3650739676997352
leaf_weight=14420 31 21 35 174 44 848 118 20 27 2433 83 645 195 30 26 68 24 28 141 744 104 81 12010 58 20 60 44 1143 160 265
leaf_count=14420 31 21 35 174 44 848 118 20 27 2433 83 645 195 30 26 68 24 28 141 744 104 81 12010 58 20 60 44 1143 160 265
internal_value=-0.035605 -0.358318 31.1344 -0.754247 25.9949 -1.02739 5.92423 38.365 19.0117 -1.16802 9.84269 0.864136 4.44101 33.8198 47.6529 17.7302 5.69887 23.5089 3.61906 0.43684 8.47656 -0.610073 -1.24522 11.9936 36.6649 16.021 18.9663 -0.313691 5.44492 4.02562
internal_weight=34100 34069 423 33646 388 32324 1322 140 248 30087 363 2237 959 94 46 193 379 55 580 1592 222 3657 26430 141 50 81 112 1224 355 406
internal_count=34100 34069 423 33646 388 32324 1322 140 248 30087 363 2237 959 94 46 193 379 55 580 1592 222 3657 26430 141 50 81 112 1224 355 406
is_linear=0
shrinkage=0.05


Tree=5
num_leaves=31
num_cat=0
split_feature=5 5 1 9 5 7 1 9 1 1 9 9 7 5 1 9 1 1 1 7 9 1 1 3 9 5 9 7 9 3
split_gain=1.46003e+09 2.08424e+08 7.25709e+07 4.18694e+07 9.49488e+06 5.99203e+06 5.0561e+06 1.3767e+06 1.35291e+06 776777 756232 603279 588827 293805 216904 165177 147914 138024 128756 113674 106557 83147.5 72213.1 59567.4 57672.1 49095.5 42665.2 28145.8 23205.4 23092.1
threshold=5400.5000000000009 669.50000000000011 2129.0000000000005 125.12500000000001 327.00000000000006 1133.1666666666667 39.500000000000007 223.75000000000003 1390.5000000000002 857.50000000000011 12.083333333333334 488.75000000000006 69.166666666666671 962.50000000000011 180.50000000000003 397.37500000000006 565.00000000000011 726.50000000000011 288.50000000000006 99.166666666666671 4.366666666666668 108.50000000000001 24.500000000000004 322.00000000000006 45.550000000000004 364.50000000000006 155.10000000000002 439.16666666666669 180.51666666666668 272.50000000000006
decision_type=2 2 2 2 2 2 2 2 2 2 2 2 2 2 2 2 2 2 2 2 2 2 2 2 2 2 2 2 2 2
left_child=1 3 5 6 7 9 10 14 -7 17 20 15 24 -11 21 25 -13 -3 -9 -14 -1 -5 -12 29 -8 -6 -23 -17 -16 -20
right_child=-2 2 -4 4 11 8 12 18 -10 13 22 16 19 -15 28 27 -18 -19 23 -21 -22 26 -24 -25 -26 -27 -28 -29 -30 -31
leaf_value=-1.2061484507351814 367.53044885706021 25.107205833088269 125.24615238734656 1.5224856185913087 15.162644894917808 46.024257370521283 0.35720925503470358 8.8787495419261901 62.688288080124636 33.884799783880062 -0.53266301280115236 19.405409839106543 2.0841213518268655 41.073007783435642 5.9519052221805238 15.8174882837244 24.039323836106522 30.161256495884487 9.2424304389953615 3.2858424323054551 -0.91832457436596759 4.5168324322686004 -0.037585742028036682 13.720055534726098 1.0835177263174538 12.569062867035738 5.5988377042232997 17.52246619088309 7.0449623350113164 11.29146900177002
leaf_weight=23759 27 22 28 20 36 29 466 123 21 44 2078 51 530 21 79 37 26 35 20 313 3719 329 1141 21 661 37 126 70 126 44
leaf_count=23759 27 22 28 20 36 29 466 123 21 44 2078 51 530 21 79 37 26 35 20 313 3719 329 1141 21 661 37 126 70 126 44
internal_value=-0.00247412 -0.294236 50.5976 -0.595264 8.80272 38.4455 -0.924669 6.35325 53.0232 32.471 -1.08225 17.2663 1.53082 36.2071 5.26442 15.6818 20.9701 28.2106 9.91289 2.53031 -1.16719 4.67777 -0.357179 11.4093 0.783199 13.8481 4.81646 16.9329 6.62374 10.6511
internal_weight=34039 34012 200 33812 1145 172 32667 888 50 122 30697 257 1970 65 680 180 77 57 208 843 27478 475 3219 85 1127 73 455 107 205 64
internal_count=34039 34012 200 33812 1145 172 32667 888 50 122 30697 257 1970 65 680 180 77 57 208 843 27478 475 3219 85 1127 73 455 107 205 64
is_linear=0
shrinkage=0.05


Tree=6
num_leaves=31
num_cat=0
split_feature=5 5 1 7 5 7 7 1 1 1 9 9 9 5 9 3 1 1 1 1 5 11 1 7 9 3 1 1 1 10
split_gain=1.31767e+09 1.88102e+08 6.54952e+07 3.77958e+07 8.76478e+06 5.40781e+06 4.15711e+06 1.33759e+06 1.221e+06 701041 589268 547563 494467 265159 198523 188270 169762 138730 133492 125128 97105.4 111165 87574.4 65900.2 65259.6 62306.4 59735 52961.8 47399.1 33103.4
threshold=5400.5000000000009 669.50000000000011 2129.0000000000005 120.00000000000001 327.00000000000006 1133.1666666666667 33.500000000000007 223.50000000000003 1390.5000000000002 857.50000000000011 488.75000000000006 9.7083333333333339 65.100000000000009 962.50000000000011 397.37500000000006 260.50000000000006 174.50000000000003 357.00000000000006 565.00000000000011 756.50000000000011 393.00000000000006 6.5000000000000009 90.500000000000014 19.833333333333339 3.0833333333333335 194.50000000000003 41.500000000000007 50.500000000000007 136.50000000000003 31.761873508568467
decision_type=2 2 2 2 2 2 2 2 2 2 2 2 2 2 2 2 2 2 2 2 2 2 2 2 2 2 2 2 2 2
left_child=1 3 5 6 7 9 11 16 -7 19 14 24 27 -11 20 25 28 -17 -12 -3 21 -6 26 -13 -1 -9 -14 -8 29 -5
right_child=-2 2 -4 4 10 8 12 15 -10 13 18 23 22 -15 -16 17 -18 -19 -20 -21 -22 -23 -24 -25 -26 -27 -28 -29 -30 -31
leaf_value=-1.1534811187577929 349.15392116970492 24.415917169196266 118.98384399414063 3.8725544676488761 16.569265920465643 43.723043928475221 0.34871248392688964 5.5559556143624445 59.553876168387276 32.190559456565168 18.43513889686734 -0.63977735502433808 -0.98023153305053712 39.019356573195687 16.08624966345101 9.6694990264044876 5.9970457637251311 14.202998790740967 22.837357565072868 29.101955650592675 9.747767810821534 11.980806316028943 2.7141938510651773 -0.20787640504723234 -0.94254930055010044 8.2496861540752899 1.8150092565819727 0.97986034602689664 4.6289179396985185 1.7929555697874591
leaf_weight=22314 27 28 28 147 22 29 768 28 21 44 51 2245 20 21 107 108 203 20 26 29 20 33 390 1456 4388 92 431 586 335 22
leaf_count=22314 27 28 28 147 22 29 768 28 21 44 51 2245 20 21 107 108 203 20 26 29 20 33 390 1456 4388 92 431 586 335 22
internal_value=-0.00235043 -0.279524 48.0677 -0.565501 8.09699 36.5232 -0.888105 5.8845 50.372 30.8475 16.255 -1.03982 1.21331 34.3968 14.7037 9.04397 4.77624 10.3779 19.9216 26.8 12.7313 13.8162 2.16552 -0.469864 -1.11882 7.62115 1.69105 0.621868 4.28452 3.60184
internal_weight=34039 34012 200 33812 1214 172 32598 955 50 122 259 30403 2195 65 182 248 707 128 77 57 75 55 841 3701 26702 120 451 1354 504 169
internal_count=34039 34012 200 33812 1214 172 32598 955 50 122 259 30403 2195 65 182 248 707 128 77 57 75 55 841 3701 26702 120 451 1354 504 169
is_linear=0
shrinkage=0.05


Tree=7
num_leaves=31
num_cat=0
split_feature=9 5 1 7 5 9 7 1 1 1 9 9 7 5 3 1 1 9 9 1 10 0 3 9 7 5 0 1 8 9
split_gain=1.19245e+09 1.41184e+08 3.61688e+07 3.15926e+07 6.60055e+06 3.80219e+06 3.75207e+06 1.20717e+06 815618 585772 482872 462622 369874 199055 169914 153211 125204 100704 70230.7 64700.1 58638.9 58047.5 56359.9 56346.5 55796.4 95643 42978.9 42933.2 42379.6 39991.1
threshold=3489.7500000000005 578.00000000000011 1738.0000000000002 120.00000000000001 327.00000000000006 895.00000000000011 32.166666666666679 223.50000000000003 1238.5000000000002 726.50000000000011 60.291666666666679 9.2916666666666696 439.16666666666669 1095.5000000000002 260.50000000000006 174.50000000000003 357.00000000000006 88.291666666666671 515.33333333333337 857.50000000000011 25.198875634122434 1.0000000180025095e-35 189.50000000000003 17.083333333333339 386.50000000000006 364.50000000000006 1.0000000180025095e-35 109.50000000000001 37.744713160140449 151.20833333333334
decision_type=2 2 2 2 2 2 2 2 2 2 2 2 2 2 2 2 2 2 2 2 2 2 2 2 2 2 2 2 2 2
left_child=1 3 5 6 7 9 11 15 13 20 26 21 24 -7 22 27 -16 -12 -14 -11 -3 -1 -9 -13 25 -6 -8 -5 -19 -29
right_child=-2 2 -4 4 12 8 10 14 -10 19 17 23 18 -15 16 -17 -18 28 -20 -21 -22 -23 -24 -25 -26 -27 -28 29 -30 -31
leaf_value=-1.1326137440098587 300.41298495205967 23.113280886695499 90.946852925618487 2.0503035125732421 13.580255103833748 34.644388343547952 -1.5171135792365442 5.1797388590299169 49.282052764892583 27.256227455536528 1.5623645895471177 -0.65784236083033987 16.164604499816896 40.800271224975589 9.1860240794994219 5.6971933696951185 13.492848758697512 2.7525704785706342 19.08157512958233 30.253914981418191 19.33033345937729 -0.9841612127758268 7.8099765899333553 -0.27091332735821577 14.023991199568208 9.5675849349410438 0.53579144342820206 3.9086483805119494 0.43906902358645489 4.9572382739332861
leaf_weight=14413 33 21 30 25 33 29 26 26 20 36 585 1969 100 24 108 203 20 345 26 36 20 12124 94 1802 51 27 1313 357 21 122
leaf_count=14413 33 21 30 25 33 29 26 26 20 36 585 1969 100 24 108 203 20 345 26 36 20 12124 94 1802 51 27 1313 357 21 122
internal_value=-0.00223289 -0.293761 40.0013 -0.551344 7.44379 31.7843 -0.8437 5.59028 40.6786 26.0385 1.10781 -0.991151 14.9126 37.432 8.59177 4.53742 9.85897 1.96934 16.7665 28.7551 21.2679 -1.06479 7.24009 -0.472945 12.8081 11.7746 0.495929 4.07029 2.61983 4.17572
internal_weight=34039 34006 216 33790 1192 186 32598 955 73 113 2290 30308 237 53 248 707 128 951 126 72 41 26537 120 3771 111 60 1339 504 366 479
internal_count=34039 34006 216 33790 1192 186 32598 955 73 113 2290 30308 237 53 248 707 128 951 126 72 41 26537 120 3771 111 60 1339 504 366 479
is_linear=0
shrinkage=0.05


Tree=8
num_leaves=31
num_cat=0
split_feature=5 5 1 7 7 7 7 7 3 1 7 1 1 5 3 1 1 7 7 7 8 7 7 5 5 11 11 1 0 0
split_gain=1.08394e+09 1.5177e+08 5.18023e+07 3.07806e+07 6.72767e+06 4.31352e+06 3.80521e+06 1.01825e+06 971644 566243 518949 420573 361462 219991 180458 144859 101258 88972.8 67396 63398.6 62688.9 61791.5 55764.1 47144.6 40155.2 36879.9 34677.6 29290.6 26214.6 25198.4
threshold=5400.5000000000009 669.50000000000011 2129.0000000000005 128.16666666666671 357.66666666666669 1133.1666666666667 37.166666666666679 233.50000000000003 1296.0000000000002 857.50000000000011 11.16666666666667 75.500000000000014 478.50000000000006 962.50000000000011 538.50000000000011 180.50000000000003 756.50000000000011 95.500000000000014 4.166666666666667 282.83333333333337 52.024027359346221 59.833333333333336 19.833333333333339 446.50000000000006 178.50000000000003 6.5000000000000009 8.5000000000000018 401.50000000000006 1.0000000180025095e-35 1.0000000180025095e-35
decision_type=2 2 2 2 2 2 2 2 2 2 2 2 2 2 2 2 2 2 2 2 2 2 2 2 2 2 2 2 2 2
left_child=1 3 5 6 7 9 10 15 -7 16 18 20 23 -11 26 24 -3 -13 29 -9 21 -8 -12 27 -5 -26 -14 -6 -24 -1
right_child=-2 2 -4 4 12 8 11 19 -10 13 22 17 14 -15 -16 -17 -18 -19 -20 -21 -22 -23 28 -25 25 -27 -28 -29 -30 -31
leaf_value=-1.0764357487377245 316.67556785300928 22.055865855727877 106.24303152901787 3.9866924427358175 11.409077181960598 38.842571456344047 0.58746332386621292 7.7457680963836939 52.82758391007134 29.018444026600232 -0.54905359071448578 1.6912622740251408 14.997996946481559 35.238487461635046 19.943578900788964 5.7383326019880911 26.271308477993671 2.7768343950284926 -0.80501013234686791 9.4439734093496739 -1.3399744878496442 1.367722065979615 -1.4108571624755859 14.733575693766277 6.9500111040861716 4.3576294842888332 17.295700677235924 13.306606566231208 -0.11535589666186348 -0.97028148575240802
leaf_weight=14355 27 28 28 407 33 27 909 113 23 44 1755 379 52 21 38 212 29 376 3681 107 35 352 40 36 23 34 24 53 1642 9156
leaf_count=14355 27 28 28 407 33 27 909 113 23 44 1755 379 52 21 38 212 29 376 3681 107 35 352 40 36 23 34 24 53 1642 9156
internal_value=-0.00212127 -0.253512 43.1742 -0.510389 7.59532 32.9072 -0.791163 5.61707 45.2757 27.8381 -0.930778 1.29382 15.106 31.028 17.1303 4.6555 24.2006 2.23189 -1.00395 8.57171 0.747333 0.805268 -0.351888 13.2144 4.16076 5.40368 15.7236 12.5785 -0.146164 -1.0351
internal_weight=34039 34012 200 33812 1132 172 32680 896 50 122 30629 2051 236 65 114 676 57 755 27192 220 1296 1261 3437 122 464 57 76 86 1682 23511
internal_count=34039 34012 200 33812 1132 172 32680 896 50 122 30629 2051 236 65 114 676 57 755 27192 220 1296 1261 3437 122 464 57 76 86 1682 23511
is_linear=0
shrinkage=0.05


Tree=9
num_leaves=31
num_cat=0
split_feature=5 5 1 9 5 7 1 1 3 1 1 9 9 5 3 8 9 1 1 1 9 9 7 0 7 3 8 9 7 1
split_gain=9.78252e+08 1.36972e+08 4.67516e+07 2.78246e+07 6.29442e+06 3.89295e+06 3.5289e+06 889729 876909 512999 500207 428307 380478 169319 140245 122966 131887 118775 106034 102493 98011.5 86114.7 80327.4 57419.6 50266.6 49476.6 44687.2 39075.7 55936.4 24715.4
threshold=5400.5000000000009 669.50000000000011 2129.0000000000005 127.65000000000002 327.00000000000006 1133.1666666666667 39.500000000000007 223.50000000000003 1296.0000000000002 880.50000000000011 10.500000000000002 77.208333333333357 488.75000000000006 962.50000000000011 260.50000000000006 57.846053603228476 397.37500000000006 756.50000000000011 357.00000000000006 565.00000000000011 160.58333333333334 22.708333333333339 59.833333333333336 1.0000000180025095e-35 108.50000000000001 194.50000000000003 44.301859598152824 5.7083333333333348 0.83333333333333337 348.50000000000006
decision_type=2 2 2 2 2 2 2 2 2 2 2 2 2 2 2 2 2 2 2 2 2 2 2 2 2 2 2 2 2 2
left_child=1 3 5 6 7 9 10 20 -7 17 23 22 15 -11 25 16 29 -3 -16 -14 -5 -12 -8 -1 -13 -9 -22 -25 -29 -6
right_child=-2 2 -4 4 12 8 11 14 -10 13 21 24 19 -15 18 -17 -18 -19 -20 -21 26 -23 -24 27 -26 -27 -28 28 -30 -31
leaf_value=-1.025337910392903 300.84179235387734 20.953072285652162 100.93087899344309 3.6775224789645939 9.4270025939941409 36.900443748191549 0.51494382094001268 4.688954033170428 50.186203268299934 27.827206166585285 -0.50855980894031216 2.0310595233727273 15.800401695101868 33.4765619913737 8.2892606982478387 16.494294466291155 13.598276889198704 25.269353500572411 12.252677879333497 19.657762439434347 5.1714925153807263 0.0017182591310217915 1.3222454169589994 -0.91808758283618419 2.962177279867265 7.0893759644549839 2.8122669943354346 1.9531744194030762 -0.70422407979840196 11.451242165816458
leaf_weight=14530 27 28 28 360 25 27 902 28 23 36 2561 401 51 21 108 21 95 37 20 26 229 1221 468 10361 227 92 22 20 2006 38
leaf_count=14530 27 28 28 360 25 27 902 28 23 36 2561 401 51 21 108 21 95 37 20 26 229 1221 468 10361 227 92 22 20 2006 38
internal_value=-0.00201518 -0.240836 41.0155 -0.48487 7.28235 31.2618 -0.74974 5.2315 43.0119 26.4462 -0.882257 1.28637 14.1639 29.9085 7.75729 12.8997 12.4219 23.41 8.90854 17.1029 4.2063 -0.343819 0.790723 -0.95791 2.36763 6.52928 4.96471 -0.878818 -0.677991 10.648
internal_weight=34039 34012 200 33812 1115 172 32697 859 50 122 30699 1998 256 57 248 179 158 65 128 77 611 3782 1370 26917 628 120 251 12387 2026 63
internal_count=34039 34012 200 33812 1115 172 32697 859 50 122 30699 1998 256 57 248 179 158 65 128 77 611 3782 1370 26917 628 120 251 12387 2026 63
is_linear=0
shrinkage=0.05


Tree=10
num_leaves=31
num_cat=0
split_feature=5 5 1 7 1 5 1 9 9 9 9 9 1 1 1 11 1 1 5 7 9 7 0 9 9 1 10 8 9 9
split_gain=9.22652e+08 1.19046e+08 3.74517e+07 2.72779e+07 5.82868e+06 5.80467e+06 3.19609e+06 869278 847317 455240 440035 394086 117725 104475 103009 97644 192598 97455.4 95409.4 77643.8 63393.3 61286.5 52020.9 60963.6 51574.6 30174.7 29622 24414.1 19217.8 19159.5
threshold=5400.5000000000009 697.00000000000011 2377.0000000000005 130.16666666666671 1238.5000000000002 327.00000000000006 39.500000000000007 207.08333333333334 895.00000000000011 11.775000000000002 488.75000000000006 79.083333333333357 756.50000000000011 565.00000000000011 174.50000000000003 4.5000000000000009 348.50000000000006 288.50000000000006 1095.5000000000002 59.833333333333336 3.8166666666666669 439.16666666666669 1.0000000180025095e-35 26.550000000000004 108.29166666666667 880.50000000000011 36.452708677101789 23.57965224510319 238.16666666666671 43.708333333333336
decision_type=2 2 2 2 2 2 2 2 2 2 2 2 2 2 2 2 2 2 2 2 2 2 2 2 2 2 2 2 2 2
left_child=1 3 4 6 8 7 9 14 12 20 15 19 -3 -12 26 -7 -17 28 -10 29 -1 -18 -11 -24 -13 -14 -5 -23 -9 -8
right_child=-2 2 -4 5 -6 10 11 17 18 22 13 24 25 -15 -16 16 21 -19 -20 -21 -22 27 23 -25 -26 -27 -28 -29 -30 -31
leaf_value=-0.93843416788924916 292.17192563657409 20.521669742039272 104.04235778808594 3.7344663164194891 49.533613967895512 14.849816158839637 0.24406648809179168 6.1733762476994443 30.06059254237584 -1.2518940134401675 14.858583740234375 1.9639626228716225 23.852159511341767 18.286907081604006 4.9750256613797923 7.7118724676278916 11.367747968785904 8.8419476801035355 34.460668113014911 1.2671724058791374 -0.72671713428696838 12.112268647693453 -0.38000843604935897 0.11259437293504285 2.9385162208193827 26.068664114815846 2.1199454645956717 14.18436960740523 7.2990338922856939 0.70860666861408395
leaf_weight=23181 27 21 20 340 36 28 419 65 28 135 50 384 34 40 215 26 68 98 22 503 4172 21 2382 853 210 28 31 44 91 472
leaf_count=23181 27 21 20 340 36 28 419 65 28 135 50 384 34 40 215 26 68 98 22 503 4172 21 2382 853 210 28 31 44 91 472
internal_value=0.00250094 -0.2294 39.3425 -0.450492 31.6858 7.23299 -0.712864 5.16317 26.8548 -0.838585 13.5097 1.23006 23.7572 16.3823 4.10421 12.1272 11.6477 7.60627 31.9966 0.770526 -0.906142 12.4171 -0.29025 -0.25012 2.3085 24.8532 3.59956 13.5149 6.83001 0.490153
internal_weight=34044 34017 189 33828 169 1117 32711 840 133 30723 277 1988 83 90 586 187 159 254 50 1394 27353 133 3370 3235 594 62 371 65 156 891
internal_count=34044 34017 189 33828 169 1117 32711 840 133 30723 277 1988 83 90 586 187 159 254 50 1394 27353 133 3370 3235 594 62 371 65 156 891
is_linear=0
shrinkage=0.05


Tree=11
num_leaves=31
num_cat=0
split_feature=3 5 1 7 5 5 1 1 9 9 9 9 1 1 1 11 1 3 1 9 7 7 9 0 9 7 10 9 1 9
split_gain=8.35012e+08 1.14603e+08 4.05296e+07 2.46183e+07 5.27076e+06 5.23872e+06 2.88503e+06 1.05335e+06 786177 397131 395460 371300 184660 122565 94288.4 88123.7 173820 75802.8 95367.5 71291.1 69369.9 55311.1 52076.6 46137.2 53756.4 45691.3 25773.8 23670.9 23614.3 18869.6
threshold=6515.5000000000009 697.00000000000011 2377.0000000000005 130.16666666666671 1361.0000000000002 327.00000000000006 38.500000000000007 1016.5000000000001 223.75000000000003 488.75000000000006 11.083333333333334 70.416666666666671 756.50000000000011 174.50000000000003 565.00000000000011 4.5000000000000009 348.50000000000006 264.50000000000006 357.00000000000006 108.29166666666667 905.00000000000011 439.16666666666669 3.2916666666666674 1.0000000180025095e-35 26.550000000000004 52.500000000000007 43.337320350631295 187.70833333333334 880.50000000000011 85.366666666666688
decision_type=2 2 2 2 2 2 2 2 2 2 2 2 2 2 2 2 2 2 2 2 2 2 2 2 2 2 2 2 2 2
left_child=1 3 4 6 7 8 10 12 13 15 22 25 -3 26 -11 -7 -17 -10 -19 29 28 -18 -1 -12 -25 -8 -5 -15 -14 -13
right_child=-2 2 -4 5 -6 9 11 -9 17 14 23 19 20 27 -16 16 21 18 -20 -21 -22 -23 -24 24 -26 -27 -28 -29 -30 -31
leaf_value=-0.89416278177610808 288.86196557617188 19.04246711730957 102.24843860973012 3.521140268445015 49.502645821406929 14.10732524054391 0.35451712910759259 32.940083847045905 6.3015385900224956 14.115654510498047 -1.1870047344480241 1.43324413479191 22.659551620483398 4.4524842423361708 17.372561664581298 7.3262787305391761 10.799360477223116 7.6282221329950666 11.226432904330167 2.7915904049646287 26.80461495139382 12.839175497201774 -0.71004352605573517 -0.3732515766206379 0.095038897220317692 0.96035349064113307 1.6759356737881899 5.4453383247451033 24.708005841573083 2.0120257198920144
leaf_weight=22545 25 20 22 352 29 28 722 40 84 50 140 292 34 148 40 26 68 113 22 210 22 65 4629 2547 807 547 20 101 24 272
leaf_count=22545 25 20 22 352 29 28 722 40 84 50 140 292 34 148 40 26 68 113 22 210 22 65 4629 2547 807 547 20 101 24 272
internal_value=0.00237591 -0.209902 38.4116 -0.427967 30.1015 6.87134 -0.677221 26.0827 4.90501 12.8342 -0.798417 1.14209 23.3397 3.99663 15.5632 11.5208 11.0653 7.48082 8.2146 2.00518 24.414 11.7963 -0.862799 -0.297698 -0.260577 0.615662 3.42194 4.85521 23.5072 1.71237
internal_weight=34044 34019 191 33828 169 1117 32711 140 840 277 30668 2043 100 621 90 187 159 219 135 774 80 133 27174 3494 3354 1269 372 249 58 564
internal_count=34044 34019 191 33828 169 1117 32711 140 840 277 30668 2043 100 621 90 187 159 219 135 774 80 133 27174 3494 3354 1269 372 249 58 564
is_linear=0
shrinkage=0.05


Tree=12
num_leaves=31
num_cat=0
split_feature=5 5 1 1 7 5 1 3 1 7 7 5 7 7 1 1 3 5 11 7 5 1 7 1 8 1 1 7 0 1
split_gain=7.59027e+08 1.20113e+08 4.72631e+07 1.73873e+07 8.28151e+06 8.11519e+06 1.16489e+06 861109 832153 814592 287273 248532 179427 144495 94271.5 90742.2 90161.2 75290.8 77204.5 54475.6 47951.2 44730 44410.2 43452 35756.2 33933.8 33391.9 31807.4 26166.6 22996.2
threshold=7010.0000000000009 1361.0000000000002 288.50000000000006 2377.0000000000005 77.833333333333357 697.00000000000011 22.500000000000004 392.50000000000006 1016.5000000000001 139.16666666666671 541.66666666666674 178.50000000000003 41.166666666666679 6.166666666666667 880.50000000000011 109.50000000000001 264.50000000000006 260.50000000000006 5.5000000000000009 357.66666666666669 826.00000000000011 59.500000000000007 455.16666666666674 173.50000000000003 38.453428937146732 223.50000000000003 265.50000000000006 59.833333333333336 1.0000000180025095e-35 136.50000000000003
decision_type=2 2 2 2 2 2 2 2 2 2 2 2 2 2 2 2 2 2 2 2 2 2 2 2 2 2 2 2 2 2
left_child=1 2 4 -3 6 7 13 16 14 15 22 23 -8 28 20 21 -4 25 -19 -18 -7 -6 -9 -11 -16 -13 -20 -14 -1 -17
right_child=-2 3 5 -5 9 8 12 10 -10 11 -12 17 27 -15 24 29 19 18 26 -21 -22 -23 -24 -25 -26 -27 -28 -29 -30 -31
leaf_value=-0.88012545684901999 300.50953543526788 47.027514069655851 5.0414223766326911 103.33707697941708 -0.68121643207967286 19.938053736193428 -0.056335305285925334 11.050762003118344 31.293079757690432 3.1820749580433456 16.38576727294922 4.5768225618509151 0.5573548035445709 -0.52064090440887634 23.157523193359378 2.4303952791474082 7.9795060930754005 9.4179042252627294 4.6154847218440134 10.160159041241903 22.959417851765952 1.7377314216349014 12.739220910323294 4.3175117613664318 25.99391983032227 5.8398266368442115 7.1259823269314246 1.1001186118216559 -0.77664874390549699 3.3212602456410729
leaf_weight=14468 21 29 20 26 20 29 1603 66 40 227 50 130 714 4235 25 220 95 22 26 41 24 430 95 134 20 90 27 434 10575 108
leaf_count=14468 21 29 20 26 20 29 1603 66 40 227 50 130 714 4235 25 220 95 22 26 41 24 430 95 134 20 90 27 434 10575 108
internal_value=0.00225713 -0.183225 -0.302768 73.6466 -0.531886 14.8794 -0.698321 10.9927 25.2157 3.18552 13.0752 4.4833 0.285386 -0.790752 22.7352 2.09124 8.17595 5.5599 6.92797 8.63691 21.3062 1.63022 12.0471 3.60354 24.4181 5.09351 5.89442 0.762546 -0.83643 2.72373
internal_weight=34044 34023 33968 55 33463 505 32029 367 138 1434 211 656 2751 29278 98 778 156 295 75 136 53 450 161 361 45 220 53 1148 25043 328
internal_count=34044 34023 33968 55 33463 505 32029 367 138 1434 211 656 2751 29278 98 778 156 295 75 136 53 450 161 361 45 220 53 1148 25043 328
is_linear=0
shrinkage=0.05


Tree=13
num_leaves=31
num_cat=0
split_feature=5 5 1 1 7 5 9 9 3 1 7 5 7 1 11 9 8 1 3 1 9 7 9 7 0 5 9 9 9 1
split_gain=6.85022e+08 1.08402e+08 4.2655e+07 1.56921e+07 7.4762e+06 7.32396e+06 940604 891042 777151 751018 259264 246646 159448 137425 111721 109959 85894.8 81848.5 81370.5 81128.5 76920.9 49164.2 41118.6 40080.2 30266.7 33352.4 27778.6 26708.3 24549.6 22451
threshold=7010.0000000000009 1361.0000000000002 288.50000000000006 2377.0000000000005 70.500000000000014 697.00000000000011 139.3666666666667 16.083333333333339 392.50000000000006 1016.5000000000001 541.66666666666674 229.50000000000003 40.500000000000007 109.50000000000001 4.5000000000000009 187.70833333333334 53.777253536308059 893.50000000000011 264.50000000000006 48.500000000000007 4.8166666666666673 357.66666666666669 602.76666666666677 455.16666666666674 1.0000000180025095e-35 1.5000000000000002 151.20833333333334 85.366666666666688 28.366666666666671 136.50000000000003
decision_type=2 2 2 2 2 2 2 2 2 2 2 2 2 2 2 2 2 2 2 2 2 2 2 2 2 2 2 2 2 2
left_child=1 2 4 -3 7 8 13 20 18 16 23 15 24 19 -13 26 17 -7 -4 -6 -1 -20 -12 -10 -9 -26 -8 -21 -27 -15
right_child=-2 3 5 -5 6 9 11 12 10 -11 22 14 -14 29 -16 -17 -18 -19 21 27 -22 -23 -24 -25 25 28 -28 -29 -30 -31
leaf_value=-0.8012893722499641 285.48405238560269 44.676137884731958 4.7893514823913579 98.170222707895135 -1.6523379694847833 19.661418376249429 2.8837741973071265 -1.0891071814077873 10.49822401566939 29.728425788879395 13.881504458472842 9.654117143721809 0.60371838419816315 2.3172677084674009 5.6526421500641169 5.1806878864255728 24.432904052734376 23.108478663517879 7.5805308653178969 1.2211480451357921 -0.56913105184083324 9.652151098483948 16.786632800924366 12.102259890907689 1.8773702388718014 -0.23008093752339259 3.7616887557907264 1.894876080542687 0.11584769621692799 3.1221456591173902
leaf_weight=24131 21 29 20 26 21 51 145 81 66 40 21 21 1017 230 103 117 21 26 95 344 4187 41 29 95 21 1671 238 257 740 139
leaf_count=24131 21 29 20 26 21 51 145 81 66 40 21 21 1017 230 103 117 21 26 95 344 4187 41 29 95 21 1671 238 257 740 139
internal_value=0.00214425 -0.174064 -0.28763 69.9643 -0.505292 14.1354 2.81352 -0.673588 10.443 23.9549 12.4214 4.33418 0.0754818 1.85601 6.33031 3.83914 21.5984 20.8254 7.76715 1.40251 -0.766963 8.20506 15.5665 11.4447 -0.138293 -0.106625 3.42932 1.50925 -0.123906 2.62046
internal_weight=34044 34023 33968 55 33463 505 1615 31848 367 138 211 624 3530 991 124 500 98 77 156 622 28318 136 50 161 2513 2432 383 601 2411 369
internal_count=34044 34023 33968 55 33463 505 1615 31848 367 138 211 624 3530 991 124 500 98 77 156 622 28318 136 50 161 2513 2432 383 601 2411 369
is_linear=0
shrinkage=0.05


Tree=14
num_leaves=31
num_cat=0
split_feature=3 5 5 1 3 1 1 1 5 1 5 3 1 10 3 1 1 3 0 1 1 3 5 10 5 3 1 1 8 5
split_gain=6.20276e+08 8.33294e+07 2.86397e+07 1.79007e+07 3.78777e+06 2.49009e+06 2.31436e+06 536389 534740 310205 306961 299230 135231 119512 92183.1 86078.5 71238.1 57164.9 49583.7 45882.5 40612.6 38467.3 37594.5 31273 33765.2 30997.8 30557.4 26879.2 25572.8 23514.1
threshold=6515.5000000000009 697.00000000000011 1983.5000000000002 136.50000000000003 353.00000000000006 1238.5000000000002 39.500000000000007 1016.5000000000001 213.50000000000003 13.500000000000002 83.500000000000014 538.50000000000011 857.50000000000011 40.505863348670189 159.50000000000003 401.50000000000006 288.50000000000006 59.500000000000007 1.0000000180025095e-35 223.50000000000003 756.50000000000011 108.50000000000001 88.500000000000014 20.868236323366684 1.5000000000000002 22.500000000000004 478.50000000000006 610.50000000000011 38.453428937146732 275.50000000000006
decision_type=2 2 2 2 2 2 2 2 2 2 2 2 2 2 2 2 2 2 2 2 2 2 2 2 2 2 2 2 2 2
left_child=1 3 5 6 8 7 9 12 14 18 17 15 20 21 22 -6 29 -8 -1 -16 -3 -12 -5 -20 -25 -11 -17 -13 -14 -10
right_child=-2 2 -4 4 11 -7 10 -9 16 25 13 27 28 -15 19 26 -18 -19 23 -21 -22 -23 -24 24 -26 -27 -28 -29 -30 -31
leaf_value=-0.7994846935125669 248.96405468750001 16.458110791160948 79.466534096854076 0.75082203328609465 8.5273678150582821 37.739513702392578 0.42853320080200946 27.433491945266724 5.1312745505688238 -0.3387375846719452 1.5288255422593306 13.668430161476136 20.868400672174271 5.5727025021677434 3.8034706304913111 10.307622579880704 7.2586002890880295 1.0795059415681585 -0.67046328032004132 5.3886282801628118 19.366884313310898 2.3692334697701627 2.9998309376585577 2.1077732404073077 -0.50630881637334824 -0.012613455779660649 11.72330231136746 15.938757254860619 23.128201003301712 6.5369681585402724
leaf_weight=14577 25 21 28 20 47 30 890 32 102 1695 313 32 31 23 247 81 104 543 13130 56 28 241 262 21 30 1278 72 22 21 42
leaf_count=14577 25 21 28 20 47 30 890 32 102 1695 313 32 31 23 247 81 104 543 13130 56 28 241 262 21 30 1278 72 22 21 42
internal_value=0.00203705 -0.180921 32.752 -0.366867 5.94559 24.7274 -0.57644 21.7923 4.31576 -0.68395 1.06729 11.2906 20.005 2.04104 3.49093 10.3989 6.26144 0.675203 -0.735939 4.09644 18.1203 1.89442 2.84033 -0.665663 0.570078 -0.198547 10.9738 14.5934 21.781 5.54127
internal_weight=34044 34019 191 33828 1087 163 32741 133 833 30731 2010 254 101 577 585 200 248 1433 27758 303 49 554 282 13181 51 2973 153 54 52 144
internal_count=34044 34019 191 33828 1087 163 32741 133 833 30731 2010 254 101 577 585 200 248 1433 27758 303 49 554 282 13181 51 2973 153 54 52 144
is_linear=0
shrinkage=0.05


Tree=15
num_leaves=31
num_cat=0
split_feature=3 7 7 7 5 1 7 5 7 1 7 1 1 11 1 1 5 1 1 1 7 7 7 0 10 3 1 1 3 7
split_gain=6.34823e+08 7.94702e+07 2.60936e+07 1.54e+07 3.61661e+06 2.74632e+06 1.88998e+06 649303 410900 295707 248964 238098 105859 96959.3 198145 89367 62466.5 50851.6 46576.3 42172 40486.8 38586.1 32026.2 30284.4 44739.7 28917.7 26578 23036.1 18034.7 17856.8
threshold=6515.5000000000009 707.83333333333337 2257.1666666666674 128.16666666666671 327.00000000000006 1390.5000000000002 35.500000000000007 962.50000000000011 203.16666666666671 478.50000000000006 9.1666666666666696 80.500000000000014 565.00000000000011 4.5000000000000009 323.50000000000006 857.50000000000011 187.50000000000003 288.50000000000006 174.50000000000003 9.5000000000000018 103.16666666666667 62.833333333333336 23.500000000000004 1.0000000180025095e-35 20.868236323366684 458.00000000000006 112.50000000000001 1116.5000000000002 911.00000000000011 153.50000000000003
decision_type=2 2 2 2 2 2 2 2 2 2 2 2 2 2 2 2 2 2 2 2 2 2 2 2 2 2 2 2 2 2
left_child=1 3 5 6 8 7 10 15 18 13 23 19 -11 -6 -15 -3 -10 -18 26 -8 -13 -21 -12 -1 -25 -16 -5 -9 -17 -28
right_child=-2 2 -4 4 9 -7 11 27 16 12 22 20 -14 14 25 28 17 -19 -20 21 -22 -23 -24 24 -26 -27 29 -29 -30 -31
leaf_value=-0.75632838266744629 262.60071026345958 16.626036366053992 75.127120971679688 0.94744573593139647 12.03317997672341 39.043581801194414 -1.1571377542283801 24.618946475074406 2.7051092147827149 11.291207038031684 -0.37177961265924697 1.3448007913749844 14.581889266967773 3.8602308654785156 8.760096074299641 19.120275356151438 5.0662464900570026 6.5548063369024367 3.6939713911980059 0.42454135366167656 2.1473222616686036 1.0057967343263619 -0.054594827103304315 -0.65314924818489239 1.5541802116062331 10.529335725307465 2.5791804949442549 26.82696798819083 21.101237640380859 3.3001573564484716
leaf_weight=14410 23 35 30 20 22 26 36 21 21 81 2971 378 35 20 83 27 181 84 178 1105 269 385 1087 12036 23 32 261 27 20 128
leaf_count=14410 23 35 30 20 22 26 36 21 21 81 2971 378 35 20 83 27 181 84 178 1105 269 385 1087 12036 23 32 261 27 20 128
internal_value=0.0061711 -0.171299 32.4218 -0.350414 5.34675 24.2092 -0.550076 21.2424 3.77602 10.3697 -0.651494 0.87467 12.2841 8.95517 8.45357 18.5388 5.33008 5.53809 3.01885 0.533875 1.67846 0.574732 -0.286817 -0.707403 -0.648939 9.25241 2.72502 25.861 19.9632 2.81642
internal_weight=34055 34032 186 33846 1146 156 32700 130 873 273 30527 2173 116 157 135 82 286 265 587 1526 647 1490 4058 26469 12059 115 409 48 47 389
internal_count=34055 34032 186 33846 1146 156 32700 130 873 273 30527 2173 116 157 135 82 286 265 587 1526 647 1490 4058 26469 12059 115 409 48 47 389
is_linear=0
shrinkage=0.05


Tree=16
num_leaves=31
num_cat=0
split_feature=1 9 1 9 7 1 1 3 9 1 9 5 3 9 1 1 9 9 9 1 3 1 9 11 1 9 1 9 1 8
split_gain=5.78434e+08 8.13873e+07 2.20647e+07 1.94846e+07 3.63131e+06 2.9522e+06 2.15217e+06 707735 512977 453931 435051 100957 95896 81085.3 74103.5 68345.5 56003 52762.5 48037.2 42923.9 42144.4 35578.7 33966.2 31054 25127.8 20334.7 18762 19226.3 18717.3 16750.1
threshold=7305.5000000000009 895.00000000000011 2377.0000000000005 187.70833333333334 52.500000000000007 478.50000000000006 1537.5000000000002 653.50000000000011 114.63333333333334 357.00000000000006 14.366666666666669 210.50000000000003 1027.5000000000002 238.16666666666671 756.50000000000011 80.500000000000014 30.550000000000004 5.0833333333333348 397.37500000000006 12.500000000000002 538.50000000000011 1218.5000000000002 151.20833333333334 8.5000000000000018 288.50000000000006 488.75000000000006 136.50000000000003 85.366666666666688 857.50000000000011 47.996515090773713
decision_type=2 2 2 2 2 2 2 2 2 2 2 2 2 2 2 2 2 2 2 2 2 2 2 2 2 2 2 2 2 2
left_child=1 3 6 4 10 9 12 20 15 13 17 22 -3 -5 -9 19 -12 -1 -11 -6 23 -14 -10 25 -15 -7 27 -17 -16 -18
right_child=-2 2 -4 5 8 7 -8 14 11 18 16 -13 21 24 28 26 29 -19 -20 -21 -22 -23 -24 -25 -26 -27 -28 -29 -30 -31
leaf_value=-0.6861396739935034 268.82130546569823 21.597289619445803 79.054122609105605 4.2598293366775017 -1.4929590997241793 10.462005397251675 42.497491455078126 14.697375946044923 2.3914856235065991 7.5157610431794204 -0.2001739858463677 6.1069289640946822 24.46597383939303 5.255103585214326 16.860804449993633 1.0469566136229747 0.26101548685765147 -0.48197841605026631 9.4084039296189399 0.80171006834755354 12.231592015659109 27.198018993030896 3.1507070289428576 11.476855703500602 6.4061306167434866 8.3514925842285148 2.9500755683297206 1.6767044476353297 18.707629372091855 -1.1992326307296755
leaf_weight=24364 20 20 29 153 21 21 22 25 413 62 2242 22 26 99 23 202 1086 3637 73 690 34 22 229 26 91 25 21 303 34 20
leaf_count=24364 20 20 29 153 21 21 22 25 413 62 2242 22 26 99 23 202 1086 3637 73 690 34 22 229 26 91 25 21 303 34 20
internal_value=0.00586256 -0.152102 41.1255 -0.296931 -0.466542 8.17089 28.904 13.479 1.65537 6.08318 -0.595214 2.77643 24.5061 5.11652 16.967 1.0536 -0.0565448 -0.659622 8.53919 0.733935 10.7808 25.7182 2.6623 10.0957 5.80638 9.31499 1.4857 1.42481 17.9624 0.23461
internal_weight=34055 34035 119 33916 33250 666 90 188 1901 478 31349 664 68 343 82 1237 3348 28001 135 711 106 48 642 72 190 46 526 505 57 1106
internal_count=34055 34035 119 33916 33250 666 90 188 1901 478 31349 664 68 343 82 1237 3348 28001 135 711 106 48 642 72 190 46 526 505 57 1106
is_linear=0
shrinkage=0.05


Tree=17
num_leaves=31
num_cat=0
split_feature=1 9 7 9 7 1 1 1 1 9 3 9 5 9 5 9 8 1 9 1 1 1 3 8 5 0 7 1 0 1
split_gain=5.22036e+08 7.3452e+07 2.00652e+07 1.75916e+07 3.70378e+06 2.26663e+06 1.13096e+06 574552 515633 421261 341188 96896.2 92831.5 89280.7 72423.5 61142.2 54245.4 53921.8 52436.5 51745.7 39147 31022 24276.8 17901.1 23504.1 14958.4 40705.1 14122.1 13459.9 13310.3
threshold=7305.5000000000009 895.00000000000011 2257.1666666666674 207.08333333333334 62.833333333333336 541.00000000000011 1390.5000000000002 357.00000000000006 15.500000000000002 114.63333333333334 653.50000000000011 34.708333333333336 226.50000000000003 397.37500000000006 1095.5000000000002 160.58333333333334 29.947174551928594 857.50000000000011 5.1833333333333345 47.500000000000007 288.50000000000006 96.500000000000014 223.50000000000003 44.301859598152824 280.50000000000006 1.0000000180025095e-35 0.83333333333333337 478.50000000000006 1.0000000180025095e-35 756.50000000000011
decision_type=2 2 2 2 2 2 2 2 2 2 2 2 2 2 2 2 2 2 2 2 2 2 2 2 2 2 2 2 2 2
left_child=1 3 6 4 8 7 14 20 18 19 16 -10 15 -9 -3 -11 -7 29 28 -6 23 -21 -17 24 -5 -20 -27 -15 -1 -12
right_child=-2 2 -4 5 9 10 -8 13 11 12 17 -13 -14 27 -16 22 -18 -19 25 21 -22 -23 -24 -25 -26 26 -28 -29 -30 -31
leaf_value=-0.68313019548019849 255.38024093627928 20.896355342864993 72.213640062736744 4.6110956227193114 -0.96285017473357071 12.452769966125489 35.061301950308 7.1399730170926752 -0.15980285656141968 2.3368815639929745 14.334534978866579 0.40657920712205375 5.9568127328699285 8.9379837610950208 24.372560856260105 3.4751955291739218 8.7701958560943609 17.772247808119829 -0.90735374696073468 1.0215780979981188 5.9992763113468257 1.6612322394956243 1.6944425446646556 3.3233754158020021 6.1947184069403285 1.8207395648956302 -0.4413208934198749 9.9432573176142007 -0.60776768986294849 16.017763917342474
leaf_weight=14304 20 31 33 122 28 20 26 62 2433 483 24 1095 22 73 29 216 20 34 171 610 94 275 21 20 29 20 3536 67 10114 23
leaf_count=14304 20 31 33 122 28 20 26 62 2433 483 24 1095 22 73 29 216 20 34 171 610 94 275 21 20 29 20 3536 67 10114 23
internal_value=0.00556944 -0.144496 39.0692 -0.282084 -0.433338 8.29099 26.351 6.71081 -0.553825 1.87253 14.3897 0.0159875 2.7574 8.71955 22.5765 2.65964 10.6115 16.2555 -0.625252 1.15339 5.17962 1.22034 3.31741 4.72905 4.91524 -0.450564 -0.428598 9.41908 -0.651915 15.1582
internal_weight=34055 34035 119 33916 33328 588 86 467 31673 1655 121 3528 742 202 60 720 40 81 28145 913 265 885 237 171 151 3727 3556 140 24418 47
internal_count=34055 34035 119 33916 33328 588 86 467 31673 1655 121 3528 742 202 60 720 40 81 28145 913 265 885 237 171 151 3727 3556 140 24418 47
is_linear=0
shrinkage=0.05


Tree=18
num_leaves=31
num_cat=0
split_feature=3 7 7 9 5 1 1 5 9 1 9 9 1 3 9 1 1 8 9 9 9 0 7 9 9 5 0 3 10 8
split_gain=4.72292e+08 5.76908e+07 1.84698e+07 1.13818e+07 3.02794e+06 1.97988e+06 1.19859e+06 486377 370317 208614 193734 134982 64961.2 58098.1 49318.2 49024.7 42352 38276.4 36143.8 34900.2 32684.9 26606.8 33194.5 27803 25743 17270.4 15031.8 13627.3 11480.7 9539.26
threshold=6515.5000000000009 707.83333333333337 2257.1666666666674 114.63333333333334 327.00000000000006 1390.5000000000002 29.500000000000004 962.50000000000011 187.70833333333334 541.00000000000011 58.708333333333336 6.366666666666668 857.50000000000011 187.50000000000003 602.76666666666677 440.50000000000006 96.500000000000014 39.266185106235802 254.00000000000003 85.366666666666688 160.58333333333334 1.0000000180025095e-35 1.1666666666666667 15.366666666666669 42.083333333333336 1162.5000000000002 1.0000000180025095e-35 911.00000000000011 33.163732833942433 43.297420845233013
decision_type=2 2 2 2 2 2 2 2 2 2 2 2 2 2 2 2 2 2 2 2 2 2 2 2 2 2 2 2 2 2
left_child=1 3 5 6 8 7 11 12 16 15 24 26 -3 -10 -11 17 -5 -6 -15 -12 28 -13 -23 -24 -8 -9 -1 -14 -18 -17
right_child=-2 2 -4 4 9 -7 10 25 13 14 19 21 27 18 -16 29 20 -19 -20 -21 -22 22 23 -25 -26 -27 -28 -29 -30 -31
leaf_value=-0.64925407903936605 226.50349854179049 14.223022144862583 63.551387837727866 0.33745165467262273 7.1036896303475618 33.30823701711801 0.065597511252133076 21.281394531250001 2.4995738464243273 10.452728803341206 0.89226258871901765 -0.93624033512071125 16.335521092459008 4.1662052453703184 13.595887724558512 8.9249629570456115 2.1845561375200258 9.1391872584819804 5.2797345796928692 1.5229159508929975 3.0684076178143598 1.7297025918960571 -0.40738344875690924 -0.15314363555200858 0.47062259582221294 23.179885333517323 -0.57135802544940373 18.057494087219236 3.0704218423366552 10.115001678466797
leaf_weight=14334 23 35 30 24 83 26 985 25 34 26 585 172 27 157 24 85 427 32 136 351 171 20 2858 1724 652 23 10905 20 40 21
leaf_count=14334 23 35 30 24 83 26 985 25 34 26 585 172 27 157 24 85 427 32 136 351 171 20 2858 1724 652 23 10905 20 40 21
internal_value=0.00529096 -0.147784 27.6223 -0.300394 4.36247 20.7128 -0.480693 18.1937 3.07942 9.04491 0.554985 -0.569481 15.8538 4.45604 11.9614 8.38505 2.39942 7.67009 4.68307 1.12876 2.47699 -0.325673 -0.302853 -0.311724 0.226915 22.1911 -0.615598 17.0683 2.26043 9.16073
internal_weight=34055 34032 186 33846 1260 156 32586 130 989 271 2573 30013 82 327 50 221 662 115 293 936 638 4774 4602 4582 1637 48 25239 47 467 106
internal_count=34055 34032 186 33846 1260 156 32586 130 989 271 2573 30013 82 327 50 221 662 115 293 936 638 4774 4602 4582 1637 48 25239 47 467 106
is_linear=0
shrinkage=0.05


Tree=19
num_leaves=31
num_cat=0
split_feature=1 9 1 9 7 5 1 1 9 5 9 5 3 9 1 9 3 9 1 9 7 1 3 11 1 0 0 0 9 11
split_gain=4.29688e+08 5.91613e+07 1.60613e+07 1.4308e+07 3.02208e+06 1.84877e+06 1.51378e+06 538278 422390 349162 344489 81197.5 67261.4 60299.4 53853.3 51106.2 51051.7 49507 43685.7 39561.7 26224 25868.3 22124.3 22028 21922.7 20831.5 16576.5 10988.5 10973.1 10445.3
threshold=7305.5000000000009 895.00000000000011 2377.0000000000005 207.08333333333334 62.833333333333336 479.50000000000006 1537.5000000000002 701.00000000000011 19.083333333333339 344.50000000000006 114.63333333333334 226.50000000000003 1027.5000000000002 5.0833333333333348 541.00000000000011 39.550000000000004 207.50000000000003 160.58333333333334 47.500000000000007 397.37500000000006 91.833333333333357 288.50000000000006 223.50000000000003 7.5000000000000009 1218.5000000000002 1.0000000180025095e-35 1.0000000180025095e-35 1.0000000180025095e-35 187.70833333333334 8.5000000000000018
decision_type=2 2 2 2 2 2 2 2 2 2 2 2 2 2 2 2 2 2 2 2 2 2 2 2 2 2 2 2 2 2
left_child=1 3 6 4 8 9 12 14 13 16 18 17 -3 27 -7 26 -5 -12 -6 -11 -20 -18 28 -9 -14 -17 -10 -1 -19 -30
right_child=-2 2 -4 5 10 7 -8 23 15 19 11 -13 24 -15 -16 25 21 22 20 -21 -22 -23 -24 -25 -26 -27 -28 -29 29 -31
leaf_value=-0.61654778002459465 231.69343200683593 18.510109057426455 67.421754139867332 2.3144681184188181 -0.90289906518799923 8.4769385719299333 36.03511054299095 15.767101877385921 -0.95897792530059811 6.6211286075779654 2.1102008853146255 5.4842835534702656 20.978394699096683 -0.38795030745267112 10.811341703505745 -0.87262878264150323 4.3639464681651319 2.9297666558679545 0.91110397755923211 8.2819152535378251 1.4889658296797552 5.4225692846900539 1.4431665556771416 13.99212286061254 23.12296336780895 0.44743011525670928 -0.037045691076404673 -0.54834469116238349 3.2213959435621895 4.6245582535153344
leaf_weight=14307 20 20 29 23 28 60 22 44 50 61 483 22 26 4435 42 31 147 159 591 87 294 95 21 29 22 832 1961 10057 36 21
leaf_count=14307 20 20 29 23 28 60 22 44 50 61 483 22 26 4435 42 31 147 159 591 87 294 95 21 29 22 832 1961 10057 36 21
internal_value=0.0050264 -0.131121 35.0618 -0.254601 -0.391009 7.47706 24.6346 11.7841 -0.499845 5.65204 1.69187 2.49206 20.9463 -0.557527 9.43816 0.0781541 4.56557 2.40063 1.04155 7.5974 1.10307 4.77952 2.99251 15.062 21.9613 0.400012 -0.0599679 -0.588395 3.14314 3.73835
internal_weight=34055 34035 119 33916 33328 588 90 175 31673 413 1655 742 68 28799 102 2874 265 720 913 148 885 242 237 73 48 863 2011 24364 216 57
internal_count=34055 34035 119 33916 33328 588 90 175 31673 413 1655 742 68 28799 102 2874 265 720 913 148 885 242 237 73 48 863 2011 24364 216 57
is_linear=0
shrinkage=0.05


Tree=20
num_leaves=31
num_cat=0
split_feature=1 5 5 1 3 1 7 9 1 9 1 3 9 1 3 9 3 9 5 7 9 9 0 9 3 1 8 3 9 11
split_gain=3.03391e+08 4.10522e+07 1.36714e+07 8.72479e+06 1.95341e+06 1.22095e+06 892479 320728 195748 170104 140828 130681 115264 48915 44640.9 44571.5 43730.1 41390.5 39043 31884.9 27593.7 24386.5 22167.3 24181 20301.5 17447.3 15333.7 10665.8 10429.2 10003.4
threshold=6006.5000000000009 627.50000000000011 1983.5000000000002 134.50000000000003 353.00000000000006 36.500000000000007 1133.1666666666667 223.75000000000003 857.50000000000011 77.208333333333357 10.500000000000002 1296.0000000000002 488.75000000000006 701.00000000000011 260.50000000000006 83.708333333333357 538.50000000000011 166.25000000000003 962.50000000000011 422.66666666666669 45.550000000000004 22.708333333333339 1.0000000180025095e-35 24.083333333333339 113.50000000000001 320.50000000000006 21.717882748907385 436.50000000000006 6.366666666666668 7.5000000000000009
decision_type=2 2 2 2 2 2 2 2 2 2 2 2 2 2 2 2 2 2 2 2 2 2 2 2 2 2 2 2 2 2
left_child=1 3 6 5 7 10 8 17 13 20 15 -8 19 -3 -9 22 -14 -5 -10 29 -7 -12 -1 28 -11 -16 -21 -28 -24 -6
right_child=-2 2 -4 4 12 9 11 14 18 24 21 -13 16 -15 25 -17 -18 -19 -20 26 -22 -23 23 -25 -26 -27 27 -29 -30 -31
leaf_value=-0.58775713045154931 164.51042747497559 10.659831314086915 53.225520222981771 2.1234019981931906 6.1656725794770004 0.1617793379087884 20.304849004745485 3.6828911104717772 15.753783372107973 1.1829099304094259 -0.29569234995772259 25.705754162016373 8.7778066594549955 13.631678025987412 4.8123056567445097 -2.8501537709009082 11.152453775116893 2.9651660555228592 18.346991911388582 6.9329398018973212 0.59544327136906749 -0.0061383371044889876 -0.51747366505398629 1.1232016024382219 1.7664584290843441 5.9841118802415565 7.6266270550814541 9.0100026187143829 -0.38148020654503867 7.367319343829978
leaf_weight=14457 28 20 30 373 43 607 24 74 47 434 2539 21 47 45 98 21 33 240 21 21 927 1019 10688 23 227 47 22 38 1624 29
leaf_count=14457 28 20 30 373 43 607 24 74 47 434 2539 21 47 45 98 21 33 240 21 21 927 1019 10688 23 227 47 22 38 1624 29
internal_value=-0.00730104 -0.143431 22.0012 -0.28039 4.17294 -0.426027 16.7386 3.03974 14.6792 0.712777 -0.508331 22.8253 8.21941 12.7173 4.68216 -0.547552 9.75735 2.45297 16.5546 7.41525 0.423844 -0.212765 -0.545747 -0.49651 1.38331 5.19213 8.09577 8.50276 -0.499536 6.64967
internal_weight=33867 33839 208 33631 1065 32566 178 832 133 2195 30371 45 233 65 219 26813 80 613 68 153 1534 3558 26792 12335 661 145 81 60 12312 72
internal_count=33867 33839 208 33631 1065 32566 178 832 133 2195 30371 45 233 65 219 26813 80 613 68 153 1534 3558 26792 12335 661 145 81 60 12312 72
is_linear=0
shrinkage=0.05


Tree=21
num_leaves=31
num_cat=0
split_feature=1 5 5 1 7 1 7 9 1 9 1 1 1 10 7 9 5 9 9 9 9 1 9 5 1 12 10 5 7 8
split_gain=2.7381e+08 3.70496e+07 1.23384e+07 7.87413e+06 1.75397e+06 1.10191e+06 805462 290223 176662 153518 127673 93675.9 79197.4 53298.2 48535.9 37354.9 35236.3 25163.3 24887.2 18377.7 17280.7 17029.8 16914.5 16792.1 13756.7 13029.7 12020.5 10321.3 10236 9737.26
threshold=6006.5000000000009 627.50000000000011 1983.5000000000002 134.50000000000003 357.66666666666669 36.500000000000007 1133.1666666666667 223.75000000000003 857.50000000000011 77.208333333333357 12.500000000000002 1238.5000000000002 478.50000000000006 34.581064114573358 74.500000000000014 166.25000000000003 962.50000000000011 50.708333333333336 2.4500000000000006 23.083333333333339 254.00000000000003 105.50000000000001 515.33333333333337 446.50000000000006 565.00000000000011 2.5000000000000004 25.198875634122434 272.50000000000006 500.33333333333343 40.120650513660173
decision_type=2 2 2 2 2 2 2 2 2 2 2 2 2 2 2 2 2 2 2 2 2 2 2 2 2 2 2 2 2 2
left_child=1 3 6 5 7 10 8 15 13 17 14 -8 23 26 18 -5 29 -7 -1 -12 -9 -11 28 25 -24 -6 -3 -22 -14 -10
right_child=-2 2 -4 4 12 9 11 20 16 21 19 -13 22 -15 -16 -17 -18 -19 -20 -21 27 -23 24 -25 -26 -27 -28 -29 -30 -31
leaf_value=-0.54039845645114049 156.28490883963448 12.253758735656739 50.564244461059573 2.0172318890930465 5.8146486043930059 0.20612800342898413 19.245222545805433 3.7714464246309718 14.319305449265702 1.0741862328333465 -0.25878497788698746 23.817944749196371 8.7519355877025706 10.146626688086469 -2.9195951620737715 2.8169077381119134 17.429642413911363 0.6113253367468916 -0.42571144263994293 0.0057740225624770694 4.0769688333783831 1.5825626065811287 8.6516454162597665 7.8406588963099892 10.346036662226139 7.0520950904259312 13.947429171475498 4.997201681137085 7.4573865010188172 15.766880380539668
leaf_weight=21284 28 20 30 373 36 790 21 65 26 349 2009 24 37 23 21 240 21 744 6082 975 42 312 25 35 23 52 22 111 26 21
leaf_count=21284 28 20 30 373 36 790 21 65 26 349 2009 24 37 23 21 240 21 744 6082 975 42 312 25 35 23 52 22 111 26 21
internal_value=-0.006936 -0.136259 20.9011 -0.266371 3.9643 -0.404725 15.9017 2.88755 13.9453 0.677138 -0.482915 21.684 7.78813 12.0814 -0.516754 2.33032 15.7269 0.402651 -0.51491 -0.172342 4.45443 1.31415 8.75643 6.9143 9.46354 6.54587 13.1409 4.74459 8.21768 14.9661
internal_weight=33867 33839 208 33631 1065 32566 178 831 133 2195 30371 45 234 65 27387 613 68 1534 27366 2984 218 661 111 123 48 88 42 153 63 47
internal_count=33867 33839 208 33631 1065 32566 178 831 133 2195 30371 45 234 65 27387 613 68 1534 27366 2984 218 661 111 123 48 88 42 153 63 47
is_linear=0
shrinkage=0.05


Tree=22
num_leaves=31
num_cat=0
split_feature=1 5 5 1 3 1 7 9 1 9 1 3 9 10 9 10 3 9 5 7 7 3 9 7 1 10 8 3 3 0
split_gain=2.47114e+08 3.34372e+07 1.11354e+07 7.1064e+06 1.59673e+06 994470 726930 259442 159438 139306 115225 111644 96376.4 48101.6 43922.8 40938.7 38149.3 34015.9 31800.8 31110.5 25810.3 24756.6 22600.9 16600.6 14747.2 16688.4 13548.4 12806.3 9863.76 9503.99
threshold=6006.5000000000009 627.50000000000011 1983.5000000000002 134.50000000000003 353.00000000000006 36.500000000000007 1133.1666666666667 223.75000000000003 857.50000000000011 85.366666666666688 12.500000000000002 1296.0000000000002 488.75000000000006 34.581064114573358 83.708333333333357 40.505863348670189 260.50000000000006 160.58333333333334 962.50000000000011 59.833333333333336 422.66666666666669 740.00000000000011 2.5500000000000003 23.166666666666668 320.50000000000006 33.163732833942433 21.717882748907385 113.50000000000001 436.50000000000006 1.0000000180025095e-35
decision_type=2 2 2 2 2 2 2 2 2 2 2 2 2 2 2 2 2 2 2 2 2 2 2 2 2 2 2 2 2 2
left_child=1 3 6 5 7 10 8 17 13 19 14 -8 20 21 22 -14 -9 -5 -10 -7 -6 -3 -1 -12 -18 -26 -22 -11 -28 -24
right_child=-2 2 -4 4 12 9 11 16 18 27 23 -13 15 -15 -16 -17 24 -19 -20 -21 26 -23 29 -25 25 -27 28 -29 -30 -31
leaf_value=-0.51279666885344499 148.47065931047712 11.210699958801271 48.036032409667968 1.8844376772468867 6.000388503074646 0.25674499096313969 18.270186305046082 3.2949725921089588 14.217789556625043 1.1398117069409801 -0.248145070912206 23.262231735956103 8.1342061404524184 9.639295374828837 -2.7241231636567549 10.667330559817229 4.340967217270209 2.6349982454209524 16.558160000755674 0.70724789481952688 6.2084228424798873 13.641304085471413 -0.64576223355563567 0.0010230866758268913 4.4558631731116254 6.3406239827473962 6.8414821364662872 1.6376613106695528 8.1718254340322396 -0.38523622598870572
leaf_weight=21522 28 20 30 344 72 1067 24 74 47 307 1973 21 58 23 22 22 98 269 21 598 21 22 374 1011 23 24 22 223 38 5469
leaf_count=21522 28 20 30 344 72 1067 24 74 47 307 1973 21 58 23 22 22 98 269 21 598 21 22 374 1011 23 24 22 223 38 5469
internal_value=-0.00658919 -0.129446 19.856 -0.253052 3.76608 -0.384489 15.1066 2.74154 13.248 0.643281 -0.458769 20.5998 7.42452 11.4773 -0.490916 8.83082 4.21873 2.2138 14.9406 0.418547 6.68919 12.4839 -0.48912 -0.163725 4.69017 5.41829 7.30147 1.34928 7.68403 -0.401912
internal_weight=33867 33839 208 33631 1065 32566 178 832 133 2195 30371 45 233 65 27387 80 219 613 68 1665 153 42 27365 2984 145 47 81 530 60 5843
internal_count=33867 33839 208 33631 1065 32566 178 832 133 2195 30371 45 233 65 27387 80 219 613 68 1665 153 42 27365 2984 145 47 81 530 60 5843
is_linear=0
shrinkage=0.05


Tree=23
num_leaves=31
num_cat=0
split_feature=1 3 7 1 1 3 1 9 3 3 5 9 1 3 9 5 3 8 3 1 9 1 11 9 11 0 9 5 7 9
split_gain=2.25491e+08 3.78899e+07 1.7905e+07 3.17931e+06 2.47072e+06 628446 440706 430113 151697 87788.5 79038.2 74195.9 46320.3 45613.3 34982.5 33924.1 25153.2 36013.9 42666.3 23525.3 23500.6 17615.2 14589.1 11607.3 10615.1 10517.6 29886.7 9352.58 11738.9 8924.52
threshold=7305.5000000000009 1918.0000000000002 357.66666666666669 85.500000000000014 701.00000000000011 1027.5000000000002 22.500000000000004 196.41666666666671 1296.0000000000002 138.50000000000003 446.50000000000006 45.550000000000004 5.5000000000000009 264.50000000000006 83.708333333333357 912.50000000000011 436.50000000000006 46.751111893960591 538.50000000000011 401.50000000000006 99.983333333333348 857.50000000000011 8.5000000000000018 14.083333333333334 7.5000000000000009 1.0000000180025095e-35 17.366666666666671 113.50000000000001 166.83333333333334 65.100000000000009
decision_type=2 2 2 2 2 2 2 2 2 2 2 2 2 2 2 2 2 2 2 2 2 2 2 2 2 2 2 2 2 2
left_child=1 2 3 6 10 15 12 9 -7 20 19 -8 14 -9 25 21 -12 18 22 -4 -5 -6 -18 -14 -21 -1 -27 -11 -29 -13
right_child=-2 -3 4 7 5 8 11 13 -10 27 16 29 23 -15 -16 -17 17 -19 -20 24 -22 -23 -24 -25 -26 26 -28 28 -30 -31
leaf_value=-0.50537839838684062 163.78500947498139 50.462148862271704 5.0627626921001232 0.87030767825182898 11.516312176840646 17.283821699959891 0.012823070166211679 3.1028645437558495 22.659202321370444 2.9876755539713233 9.4996293067932136 0.43416204230260425 -0.35436675416736874 4.3487055334779958 -2.5698787426948551 14.268281272605615 6.6771269494836991 5.7011875334240152 9.30590379614579 6.144517493247986 1.4597352038855045 13.023560492197673 8.2540806163441047 -0.17435820316251965 7.4347250137329102 -0.44322874275171176 1.2541553797630165 1.8097623230105613 2.3427419628371897 0.74262795212599353
leaf_weight=14387 21 37 38 284 42 35 1798 150 21 29 20 623 3406 144 20 27 44 21 38 44 418 36 22 1215 25 10105 26 221 194 376
leaf_count=14387 21 37 38 284 42 35 1798 150 21 29 20 623 3406 144 20 27 44 21 38 44 418 36 22 1215 25 10105 26 221 194 376
internal_value=-0.00625974 -0.107885 -0.163228 -0.291187 10.1838 15.0221 -0.394747 2.00699 19.2996 1.56931 7.09261 0.204779 -0.452255 3.71307 -0.479603 12.7407 7.85328 7.58986 7.97123 6.06179 1.22128 12.212 7.20278 -0.307037 6.61198 -0.477898 -0.438873 2.11958 2.05891 0.550261
internal_weight=33867 33846 33809 33396 413 161 31956 1440 56 1146 252 2797 29159 294 24538 105 145 125 104 107 702 78 66 4621 69 24518 10131 444 415 999
internal_count=33867 33846 33809 33396 413 161 31956 1440 56 1146 252 2797 29159 294 24538 105 145 125 104 107 702 78 66 4621 69 24518 10131 444 415 999
is_linear=0
shrinkage=0.05


Tree=24
num_leaves=31
num_cat=0
split_feature=1 3 7 1 1 3 3 1 3 9 5 3 9 1 9 5 3 10 1 3 1 1 9 3 10 0 10 5 1 9
split_gain=2.03506e+08 3.41956e+07 1.61593e+07 2.86946e+06 2.22983e+06 567172 423072 362475 136907 107165 71332 58445.4 57451.2 41804.1 31571.7 30616.5 22700.8 25863.9 21231.6 17081.2 15897.7 11279.8 10475.6 10189.6 10000.8 9492.12 29228.6 9423.53 11821.3 8411.63
threshold=7305.5000000000009 1918.0000000000002 357.66666666666669 80.500000000000014 701.00000000000011 1027.5000000000002 170.50000000000003 22.500000000000004 1296.0000000000002 238.16666666666671 446.50000000000006 113.50000000000001 45.550000000000004 5.5000000000000009 83.708333333333357 912.50000000000011 436.50000000000006 55.180124770937887 401.50000000000006 538.50000000000011 857.50000000000011 178.50000000000003 14.083333333333334 451.50000000000006 27.225600587265657 1.0000000180025095e-35 28.310477599904615 79.500000000000014 136.50000000000003 31.083333333333339
decision_type=2 2 2 2 2 2 2 2 2 2 2 2 2 2 2 2 2 2 2 2 2 2 2 2 2 2 2 2 2 2
left_child=1 2 3 7 10 15 11 13 -7 -8 18 27 29 14 25 20 -12 19 -4 -18 -6 -13 -15 -20 -11 -1 -27 -5 -29 -9
right_child=-2 -3 4 6 5 8 9 12 -10 24 16 21 -14 22 -16 -17 17 -19 23 -21 -22 -23 -24 -25 -26 26 -28 28 -30 -31
leaf_value=-0.4801094626439093 155.59575616745724 47.939042199624552 4.8096246016652966 0.61905442516647247 10.940496444702148 16.419630734579904 2.4870787129125427 -0.07739452523808496 21.526242156255815 3.6789772075155507 9.0246480083465581 1.5748759816739026 0.49964210389311214 -0.33664841214146363 -2.4413847851753236 13.554867242883754 7.0439868357644162 5.5624282979965214 5.8656776834041517 8.3710610389709483 12.37238243950738 2.3180296947035877 -0.16564029492281662 7.1694862799210988 4.4203007777531944 -0.42070614301157711 1.4926160764694214 0.98259899145850571 2.091338106072866 0.14315164001664982
leaf_weight=14387 21 37 38 179 42 35 280 1071 21 92 20 490 908 3406 20 27 67 20 47 38 36 57 1215 22 90 10111 20 319 26 725
leaf_count=14387 21 37 38 179 42 35 280 1071 21 92 20 490 908 3406 20 27 67 20 47 38 36 57 1215 22 90 10111 20 319 26 725
internal_value=-0.00594675 -0.102491 -0.155067 -0.276627 9.67457 14.271 1.83635 -0.378288 18.3346 3.10103 6.73798 1.2908 0.175507 -0.429643 -0.455623 12.1037 7.46061 7.21037 5.7587 7.52426 11.6014 1.65232 -0.291685 6.28138 4.04557 -0.454003 -0.416929 0.913425 1.06616 0.0116344
internal_weight=33867 33846 33809 33396 413 161 1533 31863 56 462 252 1071 2704 29159 24538 105 145 125 107 105 78 547 4621 69 182 24518 10131 524 345 1796
internal_count=33867 33846 33809 33396 413 161 1533 31863 56 462 252 1071 2704 29159 24538 105 145 125 107 105 78 547 4621 69 182 24518 10131 524 345 1796
is_linear=0
shrinkage=0.05


Tree=25
num_leaves=31
num_cat=0
split_feature=5 7 5 8 1 1 5 5 9 1 1 1 9 11 1 9 9 9 5 7 9 9 5 11 11 8 8 7 1 5
split_gain=2.57344e+08 2.74762e+07 8.3794e+06 4.53742e+06 1.79069e+06 1.16591e+06 792477 319024 252330 203659 131080 83806.7 62062.9 59550.9 124373 71870.2 39260.5 36297 35172.9 29454.1 19785.4 18186.4 17255.4 16256.7 14312.3 13517.2 11315.8 7933.87 14702.4 8290.55
threshold=7010.0000000000009 985.83333333333348 226.50000000000003 214.78422629231383 59.500000000000007 565.00000000000011 1983.5000000000002 327.00000000000006 125.12500000000001 15.500000000000002 1238.5000000000002 701.00000000000011 207.08333333333334 4.5000000000000009 316.50000000000006 515.33333333333337 33.366666666666674 85.366666666666688 174.50000000000003 439.16666666666669 4.366666666666668 187.70833333333334 272.50000000000006 7.5000000000000009 8.5000000000000018 82.518670515323066 34.406872252237626 188.00000000000003 178.50000000000003 113.50000000000001
decision_type=2 2 2 2 2 2 2 2 2 2 2 2 2 2 2 2 2 2 2 2 2 2 2 2 2 2 2 2 2 2
left_child=1 2 4 6 9 7 10 12 17 20 -3 -7 -4 -9 -15 19 -11 -6 27 -16 -1 -20 -14 26 -21 -22 -13 28 29 -10
right_child=-2 3 5 -5 8 11 -8 13 18 16 -12 23 22 14 15 -17 -18 -19 21 24 25 -23 -24 -25 -26 -27 -28 -29 -30 -31
leaf_value=-0.43609746672086103 167.19861742102583 15.05381865250437 0.67542264347984682 44.215730133056638 0.55373126926604099 8.1736899910551131 28.320269174575806 8.0013845817248033 2.554004101569836 -0.12015711584918093 20.054688583612446 11.092278465857873 3.0083815250368349 1.9684518683524361 4.9976659361909084 8.7816283861796069 0.25049631405360201 1.1266716476432443 2.0301107277924362 5.8279308151780516 -0.31436512934759647 3.0004588401206185 3.9718902280697459 10.37226322792672 7.1363646304968631 -1.6172217893600465 12.674214878082276 0.88129972914854682 2.4648161535393704 1.6297391226879494
leaf_weight=23939 23 38 21 25 695 33 20 30 26 2337 20 26 84 21 82 21 1029 459 88 57 4344 107 104 37 33 20 20 24 73 363
leaf_count=23939 23 38 21 25 695 33 20 30 26 2337 20 26 84 21 82 21 1029 459 88 57 4344 107 104 37 33 20 20 24 73 363
internal_value=0.00611683 -0.106402 -0.184349 25.679 -0.286532 5.83242 19.7377 4.6871 1.23203 -0.374522 16.7783 10.3051 3.25342 5.91514 5.62267 6.02028 -0.00684684 0.781617 1.99527 5.68314 -0.418248 2.56256 3.54139 11.1525 6.30769 -0.320336 11.7801 1.76766 1.8137 1.69152
internal_weight=34199 34176 34073 103 33504 569 78 453 1835 31669 58 116 209 244 214 193 3366 1154 681 172 28303 195 188 83 90 4364 46 486 462 389
internal_count=34199 34176 34073 103 33504 569 78 453 1835 31669 58 116 209 244 214 193 3366 1154 681 172 28303 195 188 83 90 4364 46 486 462 389
is_linear=0
shrinkage=0.05


Tree=26
num_leaves=31
num_cat=0
split_feature=5 5 1 9 5 3 1 7 1 1 8 9 3 1 5 3 8 1 3 1 8 8 9 8 3 9 1 11 3 11
split_gain=2.32253e+08 2.47981e+07 7.42793e+06 4.98712e+06 1.06207e+06 748194 726861 182622 143893 141534 139453 81628.8 60819.3 53296.3 51855.8 37105.2 33032 26577.6 26504.8 26174.5 22727 22371.8 17107.4 16635.2 16057.2 14874.8 13053.3 12853.4 12377.1 9191.1
threshold=7010.0000000000009 669.50000000000011 2129.0000000000005 136.3666666666667 327.00000000000006 30.500000000000004 1238.5000000000002 985.83333333333348 83.500000000000014 223.50000000000003 57.846053603228476 460.37500000000006 11.500000000000002 119.50000000000001 899.00000000000011 189.50000000000003 37.000000000000021 50.500000000000007 552.50000000000011 320.50000000000006 76.41309747517208 34.041634037324734 397.37500000000006 43.297420845233013 168.50000000000003 1.9166666666666667 109.50000000000001 8.5000000000000018 774.00000000000011 4.5000000000000009
decision_type=2 2 2 2 2 2 2 2 2 2 2 2 2 2 2 2 2 2 2 2 2 2 2 2 2 2 2 2 2 2
left_child=1 3 6 5 9 12 7 14 17 13 11 22 20 -5 16 -11 28 -7 27 -17 25 26 -6 -21 -15 -1 -10 -13 -3 -28
right_child=-2 2 -4 4 10 8 -8 -9 21 15 -12 18 -14 24 -16 19 -18 -19 -20 23 -22 -23 -24 -25 -26 -27 29 -29 -30 -31
leaf_value=-0.42267774729643864 158.83869592417841 9.1629780960083007 37.878003692626955 -0.72582657575607312 4.3091536210416121 0.10877282333861481 20.277202360970634 14.301127614473044 0.83224044083564719 1.2911985175176102 9.7757347713817264 5.7208000832415644 -0.15964106620487162 1.6526626342054689 8.2348542745113384 3.1775068273093252 12.388504393895467 0.48782890450332977 8.0785921096801765 3.4943512871151885 -2.0462995256696428 2.2899778654700831 5.411343226713293 5.4213204463322962 2.2296293289302547 -0.33896521102818999 1.8740563181773675 7.0740600245339538 10.881591974605215 1.1543206497040743
leaf_weight=20305 23 20 37 20 73 1049 28 38 352 22 22 47 2856 273 25 185 24 827 26 21 21 38 68 24 216 7184 53 28 22 272
leaf_count=20305 23 20 37 20 73 1049 28 38 352 22 22 47 2856 273 25 185 24 827 26 21 21 38 68 24 216 7184 53 28 22 272
internal_value=0.00581099 -0.101081 17.7244 -0.202846 3.2318 -0.309667 12.9749 11.3899 0.505907 2.28384 5.9644 5.61791 -0.379257 1.80405 10.1742 3.25293 10.9088 0.275873 6.70292 3.44057 -0.402056 1.10947 4.84071 4.52207 1.90752 -0.4008 1.0432 6.22602 10.0632 1.27169
internal_weight=34199 34176 194 33982 1025 32957 157 129 2591 761 264 242 30366 509 91 252 66 1876 101 230 27510 715 141 45 489 27489 677 75 42 325
internal_count=34199 34176 194 33982 1025 32957 157 129 2591 761 264 242 30366 509 91 252 66 1876 101 230 27510 715 141 45 489 27489 677 75 42 325
is_linear=0
shrinkage=0.05


Tree=27
num_leaves=31
num_cat=0
split_feature=5 5 3 9 5 7 3 9 7 3 10 7 7 9 5 8 10 10 3 9 0 9 5 5 9 7 5 8 7 0
split_gain=2.09608e+08 2.23803e+07 6.59704e+06 4.50284e+06 1.00661e+06 574693 561475 140010 85449.2 77549 63076.1 64992.8 52519.9 39118.8 38774.8 31088.7 27234.8 24204.2 23056.6 17110.6 16158.4 14101.9 16936.6 13197.5 12540.5 11744.2 9720.58 9547.15 8553.26 7744.67
threshold=7010.0000000000009 669.50000000000011 1918.0000000000002 125.12500000000001 327.00000000000006 1133.1666666666667 29.500000000000004 196.41666666666671 70.500000000000014 1296.0000000000002 63.175620989546218 439.16666666666669 7.166666666666667 895.00000000000011 185.50000000000003 52.024027359346221 36.452708677101789 63.175620989546218 796.00000000000011 41.366666666666674 1.0000000180025095e-35 160.58333333333334 113.50000000000001 272.50000000000006 88.291666666666671 386.50000000000006 578.00000000000011 43.297420845233013 17.500000000000004 1.0000000180025095e-35
decision_type=2 2 2 2 2 2 2 2 2 2 2 2 2 2 2 2 2 2 2 2 2 2 2 2 2 2 2 2 2 2
left_child=1 3 5 6 7 13 12 17 19 -7 11 25 29 16 -9 23 18 21 -3 -8 -14 22 -5 -16 -10 -6 27 -13 -22 -1
right_child=-2 2 -4 4 10 9 8 14 24 -11 -12 26 20 -15 15 -17 -18 -19 -20 -21 28 -23 -24 -25 -26 -27 -28 -29 -30 -31
leaf_value=-0.41251514543691015 150.89675744098165 9.095528828014027 35.219563028139952 2.6706412410736089 3.8764598592844877 15.003080837543195 0.044643235341238326 0.96298781633377084 0.62735620102004797 19.088257607959566 7.9063116715504584 5.6208812099032937 -0.87068980329492129 11.775388651880725 2.6599038533506723 4.6631158045927688 8.3753153281552457 0.081067735950152084 11.242083582384835 0.3622001124167421 -0.24076805585861766 2.0498598057200614 1.4345063879603608 3.4360960746353322 1.0182937569504236 4.9352516422271728 7.0278007688976478 6.7432419737180069 -0.09484929874715059 -0.35726735742878346
leaf_weight=14479 23 22 39 30 55 26 800 22 389 21 26 90 89 29 145 30 28 24 29 903 2901 194 363 88 434 50 21 24 1536 11289
leaf_count=14479 23 22 39 30 55 26 800 22 389 21 26 90 89 29 145 30 28 24 29 903 2901 194 363 88 434 50 21 24 1536 11289
internal_value=0.00552044 -0.0960274 16.8382 -0.192703 2.86613 12.2132 -0.301002 2.06429 0.415187 16.8284 5.56704 5.31362 -0.36072 10.2048 2.97944 3.14812 9.62824 1.63742 10.3161 0.213025 -0.203634 1.70105 1.52887 2.95306 0.833513 4.38065 6.03927 5.85717 -0.190254 -0.388311
internal_weight=34199 34176 194 33982 1162 155 32820 896 2526 47 266 240 30294 108 285 263 79 611 51 1703 4526 587 393 233 823 105 135 114 4437 25768
internal_count=34199 34176 194 33982 1162 155 32820 896 2526 47 266 240 30294 108 285 263 79 611 51 1703 4526 587 393 233 823 105 135 114 4437 25768
is_linear=0
shrinkage=0.05


Tree=28
num_leaves=31
num_cat=0
split_feature=5 5 1 9 5 3 1 5 10 1 1 5 3 10 1 5 3 1 3 1 1 8 8 8 3 9 1 8 3 3
split_gain=1.89171e+08 2.01982e+07 6.09009e+06 4.06787e+06 867604 609121 592142 141368 122628 118048 116364 59740.5 49908.8 46377.9 46264.3 43935.3 31603.1 26448 25778.5 22181.8 21439.3 21212 19997 14064.4 13634.5 12453.6 10838.6 9805.25 10354.9 9610.19
threshold=7010.0000000000009 669.50000000000011 2129.0000000000005 136.3666666666667 327.00000000000006 30.500000000000004 1238.5000000000002 1162.5000000000002 63.175620989546218 83.500000000000014 223.50000000000003 446.50000000000006 11.500000000000002 55.180124770937887 119.50000000000001 885.00000000000011 189.50000000000003 918.50000000000011 422.00000000000006 51.500000000000007 320.50000000000006 76.41309747517208 34.041634037324734 43.297420845233013 165.50000000000003 1.9166666666666667 109.50000000000001 41.263357747966978 552.50000000000011 774.00000000000011
decision_type=2 2 2 2 2 2 2 2 2 2 2 2 2 2 2 2 2 2 2 2 2 2 2 2 2 2 2 2 2 2
left_child=1 3 6 5 10 12 7 13 11 19 14 18 21 15 -5 29 -12 -15 -6 -7 -18 25 26 -22 -16 -1 -11 28 -13 -3
right_child=-2 2 -4 4 8 9 -8 -9 -10 22 16 27 -14 17 24 -17 20 -19 -20 -21 23 -23 -24 -25 -26 -27 -28 -29 -30 -31
leaf_value=-0.38179149982062388 143.35191425240558 8.5586668395996099 34.244924091648407 -0.72998896598815921 3.7408862617611889 0.10054131184483187 18.286635078702655 14.129182243347168 8.7964166194510955 0.74813162002405575 1.1303822430697354 5.3644567183959175 -0.14338930106693856 6.9157905909419064 1.4610878447509879 11.963892364501953 2.875925270898922 9.4871708106994639 5.2954700899124152 0.44846891985655585 3.1478288809458417 -1.9514815029643833 2.1191104286595395 4.9196548541386926 1.9891352826491797 -0.30519433931344114 1.1485721599677434 6.8474308967590334 6.5927010449496182 10.057286237633747
leaf_weight=20305 23 20 37 20 80 1081 28 20 24 352 22 78 2856 20 246 26 185 20 40 795 21 21 38 24 243 7184 325 20 22 23
leaf_count=20305 23 20 37 20 80 1081 28 20 24 352 22 78 2856 20 246 26 185 20 40 795 21 21 38 24 243 7184 325 20 22 23
internal_value=0.00524441 -0.091226 15.9963 -0.183068 2.91892 -0.279544 11.6957 10.2651 5.38871 0.456338 2.06213 5.04794 -0.342333 9.55607 1.62709 10.3413 2.94084 8.20148 4.25908 0.247984 3.11401 -0.362987 1.00301 4.0928 1.72349 -0.361774 0.940367 5.8368 5.63467 9.36025
internal_weight=34199 34176 194 33982 1025 32957 157 129 264 2591 761 240 30366 109 509 69 252 40 120 1876 230 27510 715 45 489 27489 677 120 100 43
internal_count=34199 34176 194 33982 1025 32957 157 129 264 2591 761 240 30366 109 509 69 252 40 120 1876 230 27510 715 45 489 27489 677 120 100 43
is_linear=0
shrinkage=0.05


Tree=29
num_leaves=31
num_cat=0
split_feature=5 7 5 8 1 1 5 5 1 1 1 1 11 1 9 1 5 8 7 9 9 9 0 11 5 11 9 4 8 9
split_gain=1.70727e+08 1.826e+07 5.55048e+06 3.52596e+06 1.0103e+06 910016 399308 349139 125105 109511 78086.9 58273 56381.9 101363 57104.1 50333.3 28630 19507.1 18995.3 16880.5 16697.7 15145.1 13778.2 13559.1 11834.9 11491.6 9883.47 13093.1 9730.76 7442.7
threshold=7010.0000000000009 985.83333333333348 178.50000000000003 214.78422629231383 565.00000000000011 51.500000000000007 1983.5000000000002 327.00000000000006 109.50000000000001 15.500000000000002 1238.5000000000002 701.00000000000011 4.5000000000000009 316.50000000000006 515.33333333333337 223.50000000000003 60.500000000000007 45.081407845511379 439.16666666666669 28.366666666666671 160.58333333333334 85.366666666666688 1.0000000180025095e-35 7.5000000000000009 272.50000000000006 8.5000000000000018 6.366666666666668 1.0000000180025095e-35 34.406872252237626 125.12500000000001
decision_type=2 2 2 2 2 2 2 2 2 2 2 2 2 2 2 2 2 2 2 2 2 2 2 2 2 2 2 2 2 2
left_child=1 2 5 6 7 9 10 15 21 22 -3 -6 -9 -14 18 17 -10 -4 -15 -11 29 -7 -1 28 -17 -20 -24 -28 -13 -18
right_child=-2 3 4 -5 11 8 -8 12 16 19 -12 23 13 14 -16 24 20 -19 25 -21 -22 -23 26 -25 -26 -27 27 -29 -30 -31
leaf_value=-0.37517733189647401 136.18432650358781 12.264870221991288 1.9196111730532721 37.274536758422855 6.6332226290847318 0.39600797396165155 21.788824405670169 6.8391332058111836 -0.45975805358453237 -0.11723647089434004 16.124683284759524 9.0524758852445171 1.2256640649977184 4.0325283242434997 7.3449147167659952 2.5297227646224201 1.0291986752658675 0.33805184778959857 4.6546699490463528 0.12487252509559355 1.8965676984310151 0.8254450296097835 -0.326661426977995 8.4045707316012006 3.2478042535627121 5.8271021337220166 0.78462842795997867 -0.23266041905100723 10.519443607330324 1.396231370090562
leaf_weight=14562 23 38 128 25 33 936 20 30 22 1951 20 26 21 82 21 128 219 23 57 1141 125 263 10972 37 104 33 32 2733 20 374
leaf_count=14562 23 38 128 25 33 936 20 30 22 1951 20 26 21 82 21 128 219 23 57 1141 125 263 10972 37 104 33 32 2733 20 374
internal_value=0.0049822 -0.0866647 -0.150208 20.934 4.12398 -0.24549 15.6966 3.33093 0.805723 -0.310422 13.5958 8.41051 4.80916 4.52458 4.88353 2.38919 1.31695 1.67871 4.58301 -0.0278942 1.37139 0.490205 -0.341292 9.11714 2.85162 5.08456 -0.305371 -0.220887 9.69029 1.26068
internal_weight=34199 34176 34073 103 743 33330 78 627 1939 31391 58 116 244 214 193 383 740 151 172 3092 718 1199 28299 83 232 90 13737 2765 46 593
internal_count=34199 34176 34073 103 743 33330 78 627 1939 31391 58 116 244 214 193 383 740 151 172 3092 718 1199 28299 83 232 90 13737 2765 46 593
is_linear=0
shrinkage=0.05


Tree=30
num_leaves=31
num_cat=1
split_feature=3 5 8 9 5 1 1 8 1 8 9 9 9 3 10 9 1 8 3 7 3 10 14 9 9 10 10 1 0 10
split_gain=1.73187e+08 1.77042e+07 6.42678e+06 3.58116e+06 727208 532962 289722 114033 78861 77506.4 67044.8 64919.9 56111.5 31720.2 31225.7 21998.9 21988.6 15406.6 15047.9 14861.5 14208.3 16188.1 14145.6 13916.8 13260 12539.3 13341.6 12278.1 12069.2 18652.3
threshold=7248.0000000000009 723.00000000000011 214.78422629231383 139.3666666666667 321.50000000000006 45.500000000000007 1016.5000000000001 57.846053603228476 13.500000000000002 122.20153520884647 88.291666666666671 180.51666666666668 460.37500000000006 180.50000000000003 71.907926325059307 305.16666666666669 893.50000000000011 34.041634037324734 595.50000000000011 65.166666666666671 3.5000000000000004 26.060186551670807 0 30.083333333333339 120.91666666666667 55.180124770937887 34.581064114573358 128.50000000000003 1.0000000180025095e-35 33.163732833942433
decision_type=2 2 2 2 2 2 2 2 2 2 2 2 2 2 2 2 2 2 2 2 2 2 9 2 2 2 2 2 2 2
left_child=1 3 6 5 11 8 16 12 19 14 20 27 -6 -13 -8 25 17 -3 -14 28 -7 -22 -12 -10 -24 26 -15 -5 -1 -30
right_child=-2 2 -4 4 7 10 9 -9 23 -11 22 13 18 15 -16 -17 -18 -19 -20 -21 21 -23 24 -25 -26 -27 -28 -29 29 -31
leaf_value=-0.35545424195500175 147.10177696228027 9.1072871753147666 35.697135619819164 0.32427407828244298 3.9332668089348339 -0.91555691702025277 13.425274169921876 8.1612019677162166 -0.12176144495939843 11.203842736207523 0.94384554916957653 0.60035930655219349 5.1013339231411621 2.3250967215673599 16.040597625005812 3.901875386067799 10.012153389874626 7.2903055953979496 6.418691880362374 -1.6545618440423693 0.35263940991831366 1.1638086788470929 1.2059726826018757 0.12256092443069799 2.8116919565200806 1.2261922919750214 3.147675668551372 1.5439843163028899 -0.29176591516201117 1.2363221216201783
leaf_weight=14507 20 28 32 22 138 21 25 25 2479 26 530 22 96 204 21 28 34 20 28 21 1144 65 36 762 20 20 65 332 13242 20
leaf_count=14507 20 28 32 22 138 21 25 25 2479 26 530 22 96 204 21 28 34 20 28 21 1144 65 36 762 20 20 65 332 13242 20
internal_value=0.0109417 -0.0755493 15.3082 -0.160138 2.81828 -0.248999 11.0715 4.93475 -0.297722 13.3859 0.58355 1.94176 4.62688 2.43629 14.6192 2.56371 9.03931 8.35021 5.3988 -0.324943 0.373854 0.396251 1.0237 -0.0643182 1.77944 2.43406 2.52386 1.46818 -0.323937 -0.289461
internal_weight=34033 34013 186 33827 980 32847 154 287 31031 72 1816 693 262 339 46 317 82 48 124 27790 1230 1209 586 3241 56 289 269 354 27769 13262
internal_count=34033 34013 186 33827 980 32847 154 287 31031 72 1816 693 262 339 46 317 82 48 124 27790 1230 1209 586 3241 56 289 269 354 27769 13262
cat_boundaries=0 1
cat_threshold=1
is_linear=0
shrinkage=0.05


Tree=31
num_leaves=31
num_cat=1
split_feature=5 5 7 9 5 1 1 3 7 1 9 11 11 1 5 1 1 9 9 14 9 3 9 1 7 3 7 9 9 1
split_gain=1.57532e+08 1.51339e+07 4.47047e+06 3.232e+06 656447 480998 261910 72359 63412.4 62838.1 60522.9 52166.7 43469.5 43339.2 27881.8 21833.4 20853.6 14280.1 14520 12704.5 12637.1 12634.1 12571.7 12377.1 10615.8 17014.5 9751.03 9322.55 8766.55 8635.77
threshold=7010.0000000000009 723.00000000000011 2257.1666666666674 139.3666666666667 327.00000000000006 45.500000000000007 1016.5000000000001 16.500000000000004 646.16666666666686 220.50000000000003 85.366666666666688 4.5000000000000009 8.5000000000000018 1390.5000000000002 178.50000000000003 893.50000000000011 357.00000000000006 65.100000000000009 3.7750000000000004 0 305.16666666666669 3.5000000000000004 120.91666666666667 174.50000000000003 178.50000000000003 176.50000000000003 62.833333333333336 57.45000000000001 488.75000000000006 565.00000000000011
decision_type=2 2 2 2 2 2 2 2 2 2 2 2 2 2 2 2 2 2 2 9 2 2 2 2 2 2 2 2 2 2
left_child=1 3 6 5 9 7 12 17 11 23 21 -6 15 -8 -11 -3 -13 18 -1 -12 -16 -7 -21 24 25 -5 -23 -28 -18 -30
right_child=-2 2 -4 4 8 10 13 -9 -10 14 19 16 -14 -15 20 -17 28 -19 -20 22 -22 26 -24 -25 -26 -27 27 -29 29 -31
leaf_value=-0.3218009984261222 136.91252623058503 7.2038254631890197 30.567532827880452 1.3512572194476731 6.3286484718322757 -0.86977904637654635 11.906950843624953 -0.028482276525050695 7.3002392248673873 0.71545556738972671 0.88078142334145648 2.9999352808793387 10.54959892604662 14.582233786582947 2.5109577390350828 9.0847336521855109 4.1496228055793702 -1.6413292562030257 -0.22968430338897081 1.1292460395739627 3.5837893657386304 0.23831827319857593 2.6711073064804078 1.8110750692459394 2.3350950130007484 0.094822737718782121 1.5605732610449197 0.48523745264136747 5.1633691423589534 3.9501064991950994
leaf_weight=23201 21 36 34 206 34 21 41 2565 22 20 564 30 23 24 193 27 119 20 5245 39 32 650 20 196 22 31 21 501 55 20
leaf_count=23201 21 36 34 206 34 21 41 2565 22 20 564 30 23 24 193 27 119 20 5245 39 32 650 20 196 22 31 21 501 55 20
internal_value=0.0103946 -0.0741328 14.1877 -0.152131 2.67736 -0.23655 10.4995 -0.282836 4.72346 1.85892 0.554373 4.50374 8.68914 12.8947 2.50451 8.00993 4.22674 -0.305755 -0.304816 0.95381 2.66354 0.345782 1.65191 1.5113 1.28444 1.18691 0.367562 0.528498 4.41646 4.83983
internal_weight=34033 34012 185 33827 980 32847 151 31031 280 700 1816 258 86 65 245 63 224 28466 28446 623 225 1193 59 455 259 237 1172 522 194 75
internal_count=34033 34012 185 33827 980 32847 151 31031 280 700 1816 258 86 65 245 63 224 28466 28446 623 225 1193 59 455 259 237 1172 522 194 75
cat_boundaries=0 1
cat_threshold=1
is_linear=0
shrinkage=0.05


Tree=32
num_leaves=31
num_cat=0
split_feature=3 5 10 7 5 3 7 1 5 7 1 8 7 7 11 1 8 5 8 7 1 0 0 10 1 3 3 1 11 8
split_gain=1.42497e+08 1.4271e+07 5.32091e+06 2.89838e+06 599535 524321 347469 88605.9 73957.2 65568.6 65297.2 47288.7 47250.7 45327.7 42122.9 64319.4 25249 18833.6 21296.9 12384.2 10718 10482.2 10382.5 9620.03 9519.79 9493.14 7396.04 11406.1 10674.6 7254.88
threshold=7248.0000000000009 723.00000000000011 285.59590203777299 130.16666666666671 321.50000000000006 1202.0000000000002 35.500000000000007 893.50000000000011 1361.0000000000002 646.16666666666686 180.50000000000003 34.041634037324734 9.8333333333333339 69.166666666666671 4.5000000000000009 348.50000000000006 44.301859598152824 154.50000000000003 53.777253536308059 176.16666666666671 109.50000000000001 1.0000000180025095e-35 1.0000000180025095e-35 36.452708677101789 220.50000000000003 165.50000000000003 451.50000000000006 565.00000000000011 8.5000000000000018 21.381455784779622
decision_type=2 2 2 2 2 2 2 2 2 2 2 2 2 2 2 2 2 2 2 2 2 2 2 2 2 2 2 2 2 2
left_child=1 3 5 6 10 7 12 11 -7 14 23 -3 -1 22 -6 -16 -9 19 24 -12 -15 -14 -8 25 -19 -5 -17 28 29 -28
right_child=-2 2 -4 4 9 8 13 16 -10 -11 17 -13 21 20 15 26 -18 18 -20 -21 -22 -23 -24 -25 -26 -27 27 -29 -30 -31
leaf_value=-0.29681174544339578 133.43279151916505 8.2319856507437574 35.714631430308025 1.1557811110482628 5.6388010357555594 11.990774499802363 -0.86023944460827373 8.6036703338623042 15.724451804823346 6.9352273334156385 1.9551840824740276 5.1342559294267138 -0.74285141825675971 0.55314285398688712 1.6827865817149481 3.7838390848575494 10.755179252624513 1.8042287762365203 3.5373815457111806 0.21669742520898583 0.9462559135104156 -0.097500356878580996 0.21181514293789863 0.44102494512285512 2.3452611655294895 1.7149402027376572 3.5249739004218057 3.3450886351721629 5.3026648697015411 4.6296961977368314
leaf_weight=26754 20 28 24 281 38 21 23 25 36 22 21 22 64 646 30 78 30 137 29 20 237 3735 1250 35 200 104 23 21 37 42
leaf_count=26754 20 28 24 281 38 21 23 25 36 22 21 22 64 646 30 78 30 137 29 20 237 3735 1250 35 200 104 23 21 37 42
internal_value=0.00987485 -0.0685792 13.7432 -0.144524 2.35887 10.4882 -0.230091 8.39235 14.3489 4.31079 1.67203 6.86898 -0.273381 0.383384 4.09615 3.84238 9.77722 2.12336 2.2372 1.10714 0.658656 -0.108372 0.192446 1.23468 2.12532 1.30683 4.16471 4.40624 4.62471 4.23879
internal_weight=34033 34013 186 33827 1118 162 32709 105 57 291 827 50 30553 2156 269 231 55 407 366 41 883 3799 1273 420 337 385 201 123 102 65
internal_count=34033 34013 186 33827 1118 162 32709 105 57 291 827 50 30553 2156 269 231 55 407 366 41 883 3799 1273 420 337 385 201 123 102 65
is_linear=0
shrinkage=0.05


Tree=33
num_leaves=31
num_cat=1
split_feature=3 7 8 9 7 1 1 8 3 9 3 1 9 12 3 10 8 1 8 10 12 9 9 14 10 3 10 3 9 3
split_gain=1.28604e+08 1.28028e+07 5.56646e+06 2.81829e+06 470697 393919 151088 92641.3 59554.3 49990.1 49571.4 70188.1 39989.8 51255.2 24027.5 20454.3 18400 17544.4 15854.7 15368.9 36013.8 13398.7 12375.1 11460.9 11871.1 10961.5 13890.6 10239.2 7658.54 7446.99
threshold=7248.0000000000009 782.00000000000011 214.78422629231383 139.3666666666667 373.33333333333343 45.500000000000007 1016.5000000000001 122.20153520884647 16.500000000000004 88.291666666666671 126.50000000000001 220.50000000000003 488.75000000000006 3.5000000000000004 595.50000000000011 71.907926325059307 44.301859598152824 541.00000000000011 24.42676032779886 55.180124770937887 2.5000000000000004 65.100000000000009 2.4500000000000006 0 26.060186551670807 3.5000000000000004 26.060186551670807 165.50000000000003 30.083333333333339 406.50000000000006
decision_type=2 2 2 2 2 2 2 2 2 2 2 2 2 2 2 2 2 2 2 2 2 2 2 9 2 2 2 2 2 2
left_child=1 3 6 5 10 8 19 15 21 25 -5 16 29 14 17 -8 27 -14 -16 20 -3 22 -1 -11 -25 -7 -27 -12 -10 -6
right_child=-2 2 -4 4 12 9 7 -9 28 23 11 -13 13 -15 18 -17 -18 -19 -20 -21 -22 -23 -24 24 -26 26 -28 -29 -30 -31
leaf_value=-0.29424639737156688 126.761153973341 7.1238939921061206 33.968489529831068 4.1288306904875709 4.3046244539865635 -0.81137858118329731 11.585759170532228 8.8180942443700943 -0.081345850712909562 0.81042521215175756 1.1741043786108905 2.3894973032273299 4.5457789712482031 7.3004819011688227 6.320951611062755 13.702468063717797 0.056563727140426637 2.7535608302463186 4.3960681724548341 6.9236867189407354 9.8926450480585526 -1.5699006072804333 -0.21791460095781631 0.69056820299314425 2.170316211382548 0.30043930465280622 1.0518452696158336 1.6770153032190969 0.10701386122385262 3.4996294512605042
leaf_weight=21382 20 24 28 23 41 21 25 26 1793 530 182 279 36 20 23 21 25 22 20 24 23 20 7064 23 33 1144 65 228 772 96
leaf_count=21382 20 24 28 23 41 21 25 26 1793 530 182 279 36 20 23 21 25 22 20 24 23 20 7064 23 33 1144 65 228 772 96
internal_value=0.00938111 -0.0651503 13.5816 -0.134106 2.48752 -0.21352 9.58978 11.2037 -0.255408 0.502237 1.84409 1.77049 4.32556 4.98793 4.53 12.5521 1.37347 3.86597 5.42566 7.95314 8.47881 -0.2762 -0.275291 0.882302 1.56256 0.321165 0.340837 1.45377 -0.0246544 3.74054
internal_weight=34033 34013 171 33842 995 32847 143 72 31031 1816 737 714 258 121 101 46 435 58 43 71 47 28466 28446 586 56 1230 1209 410 2565 137
internal_count=34033 34013 171 33842 995 32847 143 72 31031 1816 737 714 258 121 101 46 435 58 43 71 47 28466 28446 586 56 1230 1209 410 2565 137
cat_boundaries=0 1
cat_threshold=1
is_linear=0
shrinkage=0.05


Tree=34
num_leaves=31
num_cat=0
split_feature=5 5 8 9 5 9 1 8 8 1 9 9 7 5 11 8 3 0 9 11 11 1 1 1 0 11 3 10 3 9
split_gain=1.17941e+08 1.09149e+07 3.67619e+06 2.37761e+06 545916 264743 167204 83608.8 71788.1 61482 45789.5 37139.4 31063.4 20626.1 19620.4 18513.2 16938 16549.3 14023.6 13676.8 14385.1 12778.1 12052.1 10774.7 10287.5 8662.37 8119.02 8078.25 7352.97 7127.95
threshold=7010.0000000000009 723.00000000000011 214.78422629231383 120.91666666666667 321.50000000000006 30.550000000000004 1016.5000000000001 122.20153520884647 62.898056961838037 180.50000000000003 460.37500000000006 60.291666666666679 7.166666666666667 1214.5000000000002 8.5000000000000018 47.996515090773713 166.50000000000003 1.0000000180025095e-35 305.16666666666669 8.5000000000000018 5.5000000000000009 893.50000000000011 197.50000000000003 357.00000000000006 1.0000000180025095e-35 5.5000000000000009 13.500000000000002 40.505863348670189 155.50000000000003 238.16666666666671
decision_type=2 2 2 2 2 2 2 2 2 2 2 2 2 2 2 2 2 2 2 2 2 2 2 2 2 2 2 2 2 2
left_child=1 3 6 5 9 12 14 13 10 15 23 26 -1 -8 21 28 22 -13 25 20 -12 -3 -11 -6 -14 29 -7 -19 -5 -18
right_child=-2 2 -4 4 8 11 7 -9 -10 16 19 17 24 -15 -16 -17 18 27 -20 -21 -22 -23 -24 -25 -26 -27 -28 -29 -30 -31
leaf_value=-0.27181173221985216 118.46558890569777 6.2428027657901541 27.757106725631225 0.99824059088792305 2.4268111456930637 -0.51299209645453925 10.818633937835694 8.3771895138116985 6.7737199192955391 1.7685334797258729 4.9692162704467782 -0.79016127819600313 -0.66071006218592332 12.938169479370117 8.6596558343796506 -0.36992320900871639 1.981247850162227 0.54527476846533562 3.130240782984981 5.2098141771096458 3.6165577378189355 7.6997576254385498 0.21098720366540166 3.3950610346069525 -0.12089290872178951 1.8073004976497034 0.15551218084126056 1.5369344961075555 1.4100799121576197 2.9684797657258581
leaf_weight=25619 21 34 31 299 40 47 22 26 21 27 30 23 90 24 21 21 41 931 27 39 57 27 23 102 4560 256 1350 21 170 33
leaf_count=25619 21 34 31 299 40 47 22 26 21 27 30 23 90 24 21 21 41 931 27 39 57 27 23 102 4560 256 1350 21 170 33
internal_value=0.00891205 -0.0642266 12.0476 -0.130466 2.06865 -0.21037 8.88529 10.6435 3.95855 1.45975 3.73795 0.298307 -0.250232 11.9245 7.34148 1.08249 1.91395 0.535131 2.03467 4.43177 4.08299 6.88768 1.05206 3.12231 -0.131341 1.94503 0.133021 0.56715 1.14752 2.4215
internal_weight=34033 34012 185 33827 1186 32641 154 72 289 897 268 2372 30269 46 82 490 407 975 357 126 87 61 50 142 4650 330 1397 952 469 74
internal_count=34033 34012 185 33827 1186 32641 154 72 289 897 268 2372 30269 46 82 490 407 975 357 126 87 61 50 142 4650 330 1397 952 469 74
is_linear=0
shrinkage=0.05


Tree=35
num_leaves=31
num_cat=0
split_feature=5 1 3 9 10 5 9 3 3 1 3 1 1 11 1 7 1 5 1 0 5 3 1 9 0 5 1 5 3 5
split_gain=8.97087e+07 1.04305e+07 3.48041e+06 2.1919e+06 1.0059e+06 451509 236425 196801 96284.2 77000.7 53954.1 42743.3 38228.3 35509.8 24912 23613.6 14290 11838.7 10704.4 10617.7 11293.8 10203.9 9960.32 9327.42 9007.69 11871.9 9328.62 8172.18 15041 7606.75
threshold=7010.0000000000009 701.00000000000011 1918.0000000000002 125.12500000000001 285.59590203777299 327.00000000000006 28.366666666666671 995.50000000000011 308.50000000000006 223.50000000000003 1296.0000000000002 401.50000000000006 71.500000000000014 7.5000000000000009 565.00000000000011 6.8333333333333348 105.50000000000001 112.50000000000001 288.50000000000006 1.0000000180025095e-35 17.500000000000004 229.50000000000003 348.50000000000006 96.416666666666671 1.0000000180025095e-35 1.0000000180025095e-35 30.500000000000004 265.50000000000006 308.50000000000006 446.50000000000006
decision_type=2 2 2 2 2 2 2 2 2 2 2 2 2 2 2 2 2 2 2 2 2 2 2 2 2 2 2 2 2 2
left_child=1 3 7 6 -4 9 15 13 -7 16 -9 22 19 -3 29 -1 -5 -18 -11 -8 -21 -19 -10 -14 -17 26 -26 -20 -29 -13
right_child=-2 2 4 5 -6 8 12 10 11 18 -12 14 23 -15 -16 24 17 21 27 20 -22 -23 -24 -25 25 -27 -28 28 -30 -31
leaf_value=-0.25857063109079531 103.31611608323597 7.4220468725476954 16.52151725769043 -0.15918199837207794 32.189563133603052 6.9944954698994053 -0.5100477760192007 9.21306586795383 1.4187470310926438 1.9504453468788416 12.402097811017718 3.1505764182769891 0.40171830496647409 5.3918565177917479 4.9862519069721829 -0.63114840454525423 2.2430260322414912 1.1123565455601092 3.5254579269886017 1.2714057860726662 0.13127513450886294 2.2096841617064045 2.7693502304858941 0.74398462213825567 0.11125229624541183 -0.13527579967435824 1.424368737425123 3.1193139539045447 1.6320628298556104 3.8478760376572612
leaf_weight=25376 21 56 20 20 21 21 64 36 20 160 21 66 535 35 38 90 26 572 20 22 1710 22 43 317 38 4484 21 34 34 96
leaf_count=25376 21 56 20 20 21 21 64 36 20 160 21 66 535 35 38 90 26 572 20 22 1710 22 43 317 38 4484 21 34 34 96
internal_value=0.00580663 -0.0579689 11.6554 -0.123411 24.5466 2.00111 -0.199656 8.08422 3.73645 1.44611 10.388 3.47631 0.253237 6.6412 3.83406 -0.239619 1.15628 1.19871 2.19406 0.122388 0.145757 1.153 2.34059 0.529064 -0.135817 -0.126004 0.578633 2.637 2.37569 3.56379
internal_weight=34039 34018 189 33829 41 1172 32657 148 284 888 57 263 2648 91 200 30009 640 620 248 1796 1732 594 63 852 4633 4543 59 88 68 162
internal_count=34039 34018 189 33829 41 1172 32657 148 284 888 57 263 2648 91 200 30009 640 620 248 1796 1732 594 63 852 4633 4543 59 88 68 162
is_linear=0
shrinkage=0.05


Tree=36
num_leaves=31
num_cat=0
split_feature=5 1 5 9 5 9 5 10 1 11 5 1 8 10 1 1 1 8 5 5 8 1 0 8 9 11 5 0 5 10
split_gain=8.09621e+07 9.41356e+06 3.15276e+06 1.97819e+06 407561 213373 154409 67654.1 64552.2 41603.9 41167.9 34501.1 27325 22159.5 21125.3 18279.5 12931.9 15918.4 10778.7 9836.15 9688.7 10864.1 9582.48 10939 8418 7390.22 7260.03 7172.44 10929.5 8582
threshold=7010.0000000000009 701.00000000000011 1983.5000000000002 125.12500000000001 321.50000000000006 28.366666666666671 1095.5000000000002 71.907926325059307 223.50000000000003 7.5000000000000009 446.50000000000006 71.500000000000014 33.269097149254058 50.403173396312972 10.500000000000002 1238.5000000000002 105.50000000000001 18.23001188516708 578.00000000000011 112.50000000000001 52.024027359346221 357.00000000000006 1.0000000180025095e-35 0.99999999999999711 96.416666666666671 4.5000000000000009 56.500000000000007 1.0000000180025095e-35 1.0000000180025095e-35 12.465284680272974
decision_type=2 2 2 2 2 2 2 2 2 2 2 2 2 2 2 2 2 2 2 2 2 2 2 2 2 2 2 2 2 2
left_child=1 3 6 5 8 14 9 10 16 12 25 22 -3 -11 -1 -8 -5 -18 -12 -19 -10 -22 -7 -24 -13 -6 -25 -16 29 -29
right_child=-2 2 -4 4 7 11 15 -9 20 13 18 24 -14 -15 27 -17 17 19 -20 -21 21 -23 23 26 -26 -27 -28 28 -30 -31
